solver_type L2R_LR
nr_class 2
label 0 1
nr_feature 38910
bias 0.000000000000000
w
-0.03030891965582039 
0 
0.02141330073468437 
0 
0.003819523491976321 
-0.0008599974053109926 
-0.006734068906756688 
-0.007269359209302845 
0.03656051073059254 
0 
-0.008223714320328744 
0.0004311097288125468 
-0.01863642523597790 
0.005633234338732825 
0.004111432201161469 
0.002173851102859424 
-0.02935924063081974 
-0.01160661026693414 
-0.005382094964186751 
0.01407727854796253 
0.01695198552208792 
0 
0 
-0.02906163417813178 
0.0001233071024062584 
-0.02336307740570657 
0 
0 
-0.005223488323433329 
0.008236294418997100 
-0.06767329621646545 
0.04401918511709061 
0.01920527641517179 
-0.02528114514581189 
0 
0.03786894831589116 
0.008153905082703649 
0 
0.005891482368204290 
0.008298635397245152 
0.01378751721326635 
0 
-0.04643981680442658 
0.008869928807971330 
-0.02021613980773893 
-0.01502785709682776 
0.02742437418315573 
-0.009026919770738785 
-0.005407655735332289 
0 
0.01261647182490188 
-0.01397260641961473 
0.2033457601278001 
0.02766171511106607 
0.007939583353334839 
0.006621411027337506 
-0.2208873158551964 
0.007286447599111731 
-0.004263912312305959 
0.01495790781359318 
0.03068722302883413 
-0.06836198644478783 
-0.02149181180932002 
-0.01326574107947333 
-0.009023715219800431 
-0.01079040518532519 
0.03323784479019892 
0.01859207015834820 
-0.001351503217299436 
0 
0 
0 
-0.0006025215188437565 
0.01349209488538118 
0.008400279377235380 
-0.08685757869541315 
-0.008542746869337698 
-0.01140286091295929 
0.0005559469918178577 
0.009985598205569296 
0.001895295936380617 
0.001561301837543397 
-0.009821306063820706 
-0.02800926385249499 
-0.07904017091856570 
0.003718708345435564 
-0.2742816886007575 
0.02600449098183653 
0.004041937065302182 
-0.01329341763981841 
0.002185337609528673 
0.008536228529548936 
0.01632257474852899 
0.009985598205569296 
-0.0006220184499097555 
-0.006669071077889758 
0.002685842068622639 
0.0005559469918178577 
0.004769383118809042 
-0.02446916862534237 
0.03349740599584440 
-0.02027154876429849 
0.1341500477130082 
0 
0.003372229612877734 
-0.002122680150852349 
0.008316752140823256 
0.01305097168548314 
-0.01064449052091532 
-0.09903993446070578 
-0.02222768911965106 
-0.001211306626335762 
-0.002275751798940595 
-0.006947485536106269 
-0.01920151877467221 
-0.007045148384415273 
0.001397740865835306 
-0.08047818430251763 
-0.006015525888588615 
-0.03609274156793696 
-0.01700095710359753 
-0.03605775654184968 
-0.01106683703089205 
0.09612378711434129 
0.004769383118809042 
-0.003208937480854542 
-0.0004277086477498733 
0.03245676320965422 
0.06114147254586428 
-0.003437559149954308 
-0.01621952466062313 
0.01103254968849997 
-0.01738813760986747 
-0.009622531682203235 
0.09499472399280183 
0.05059644596905096 
-0.02165311201721899 
-0.02067416359713586 
0.02560254189657764 
0.03735509250821163 
-0.08009453279858829 
-0.002626968567727332 
0.009717568761378940 
0.01069229163660999 
-0.01513487656894191 
0 
-0.01238689607576171 
-0.01029462851684032 
-0.01056375648778922 
0.004396785690095018 
-0.002318982630400164 
-0.1414376324656550 
0.004207587017827558 
-0.001815156564850985 
0.01349179206387283 
0 
0 
-0.0006490256719945053 
0.04768701797957409 
-0.003623154144676092 
0.04681214215622146 
-0.04734463568811678 
0.01517164286253063 
-0.004808064108738283 
0 
-0.1428326715853535 
0.07841482398835625 
0.01689497002064199 
0.01668905542190743 
-0.06566388672199908 
0.001050351805961302 
0.04140545801364491 
-0.0003922407653308941 
-0.02757040883876400 
-0.05287484826250190 
0 
-0.001521397814451210 
0.1383394702966219 
-0.01269827802546670 
0.01503941400746018 
0.001775510449884865 
-0.001661483820241371 
-0.04700875527824792 
-0.01365415657157859 
-0.02414164626356471 
-0.004798146937911732 
0 
-0.04283712255643237 
0.001889411633997156 
0.001380157320971863 
0.02358053804623037 
0 
-0.005631933762823673 
0.07391026118657952 
-0.03212616846897941 
-0.01006110055712122 
0.05602518690651778 
0.05888433213990681 
0.01459881639278488 
0.03313211993566831 
0.01567893296663370 
-0.05910161679452447 
-0.005004340971366853 
-0.008798171735316670 
-0.01934984807079546 
0.004292094194068983 
0 
0.01401097214906338 
0.02838706138105162 
0.02493400419371498 
0 
-0.02072644841325754 
0.003141098325216175 
-0.001487373763605587 
0.003174159713065783 
0.0009895879167496702 
-0.01407407592189059 
-0.07027560650263032 
-0.01180336306787528 
0.007405602597913678 
0.03213639672892626 
0 
-0.01628668646565384 
0.01700800132714283 
0.01701016397201021 
-0.01020709246482417 
0.02438383517256266 
0 
-0.003671492906683712 
-0.007505795903501932 
-0.009529177109008679 
0.06666937459468898 
0.01168125813737146 
-0.03362062302676219 
0.02527881086496881 
-0.02651783691364638 
-0.009591019403327598 
0.02880791823014670 
0.001173604472876828 
0.01878523561385300 
-0.002626968567727332 
0.001204554949917004 
-0.003566745897251674 
-0.02328699613278597 
-0.01830313083802129 
0.01457186298525915 
-0.03207239761202141 
-0.02222768911965106 
0.03198513021222766 
-0.03685575079428735 
-0.01194776772540828 
-0.01781744762513905 
-0.05472063975032258 
-0.008350690301185102 
-0.01703319817372249 
-0.01200231944568544 
0 
0.09588589392712316 
-0.007176639344425504 
0.009524249418178731 
-0.03542586072341186 
-0.02050198167155530 
-0.01474059997980011 
0.007961964382918931 
0.008316752140823256 
-0.03778796916660371 
0.007946881499318256 
-0.01688114787500787 
-0.009083461363164673 
0.01155008656646098 
9.720489858543332e-06 
-0.008926158257530854 
6.220370299349744e-05 
-0.02542818065120732 
0.007731277955222521 
0 
-0.02906163417813178 
0.001561301837543397 
0.005700326947210744 
0.01516619026218294 
0.01159619876497212 
-0.009336220074878518 
0.01867323478132603 
-0.01334541419393454 
0.02942510484661628 
0.003193027939724477 
0.01760287475999465 
0.002449493031609011 
-0.01898720940296614 
-0.001932790791904830 
0 
0.0008739328582107507 
0.01374465276583387 
-0.02875818800849930 
0.001201058202322812 
0.07249554205261098 
-0.001715226102285557 
0.02423474019535470 
0.1013664474297649 
0.2437147397257824 
0.1169827071975865 
-0.02666945903072860 
0.006548053522844004 
-0.005904347161756586 
0.01121682418573988 
-0.01007076220202869 
-0.01003249161309701 
-0.009289982725765656 
0.003843530061165369 
0.02649483666922408 
-0.04436067440870159 
0 
-0.05834998948980630 
-0.003214108381125518 
-0.06319899605852018 
-0.1528474346279189 
0 
0.1704137614079527 
0.06571591421241049 
0.1620746899142402 
-0.01848259781276750 
0 
0.003604270633559499 
-0.01755678523155966 
0.01844377447559084 
0.1777940868977015 
0.001215010248857042 
-0.02534064728270082 
-0.01296040570485586 
-0.01447184640022078 
-0.0006003711966238189 
-0.01263959838198053 
0.1683059803821000 
-0.01185804043032895 
-0.01186527873864584 
0.001215010248857042 
-0.008480689969159037 
0.2212160746744439 
0.01305372790203489 
0.09194225942207539 
0.002481957649398559 
-0.006138997908773361 
-0.002412573368410510 
-0.02932018932164484 
0.06551537684660550 
0.03275643897469312 
0.02767032876477859 
0.003620291584273253 
0.03094404495354420 
-0.03791788376188007 
6.220370299349744e-05 
-0.01033147687207445 
0.1921904506265996 
-0.006734068906756688 
-0.04351387720101065 
-0.02655852952793264 
0 
0.06066747904819322 
-0.02669996852947169 
-0.06250176894728146 
0.01712690019918703 
0.01279007137310735 
-0.0002727255792276880 
-0.02534781775782885 
0.02295479957969287 
0.06634252407351114 
-0.02099609891565508 
0.05009026543475127 
0.005849482422491789 
0.007431728371693921 
0.01265680797832756 
0.03206592913254119 
0.03799934027649275 
-0.06378147071710252 
-0.01284841017355689 
-0.07835709009731073 
-0.01711673006271869 
-0.01159602397338386 
-0.01352892164627533 
-0.005631933762823673 
0.009420958567911876 
-0.01839108275967977 
-0.01019475324041197 
0 
0 
-0.002678153426997883 
0.002951036269125046 
0.02163504890176131 
-0.005748985007505818 
0.01851099377038351 
-0.01107663781261093 
0.008081334750465073 
0 
-0.007446633960023032 
-0.01640321658265184 
0.005633234338732825 
0.02242695374212515 
0.01570255385024942 
-0.006918459404389774 
0.001863259072736779 
-0.004565397352901577 
-0.02182559115383886 
0.01608851008954600 
0.01349179206387283 
0 
-0.002141179060193421 
0.0001748422073511165 
-0.001647366445167765 
0.005587737550774569 
-0.01220315491809152 
0.01108431698756638 
0.002328541562654871 
0 
0.02669818430691937 
-0.005482810059062111 
0.02518144193027549 
-0.004303624325571707 
-0.001647366445167765 
0.02669724776297569 
-0.002207079130554763 
-0.07506268595267329 
-0.01389872291640129 
-0.008223714320328744 
-0.01829614418849712 
-0.01284817149003381 
0.06744307591345242 
-0.1010435774405729 
-0.008207027197017902 
-0.001553298156226146 
-0.09569240906424736 
-0.02550996333383046 
0.01386998536816661 
-0.003553668925141195 
-0.02228899493881536 
-0.03421528988744889 
-0.004017539709446101 
0.04100254137422395 
0.02507862196625488 
0.06051549014568782 
0.04238308324342677 
0.005971016617332575 
-0.008815221096361655 
0.01837879297018627 
-0.1233367982993615 
0 
0.002470134468927095 
-0.02930238240207542 
0.009060127890656947 
-0.007814289628963963 
-0.03905108726846074 
0 
0.001869354898707566 
-0.01377649317102892 
0.02632090950838850 
-0.0009548024062550119 
-0.009379476005009390 
0 
0.03424944515867379 
0.009849367092722182 
-0.01053919873966484 
0.001659375752584414 
-0.02329371044152650 
0.01079435098424570 
-0.02981735217893777 
0 
-0.04602129735427937 
0.01428107351045234 
-0.01163505266060563 
0.004793635371102988 
0.01329919534945334 
-0.02756636010262788 
0.1106808964263555 
0 
-0.1265585123888049 
0.01339960150541945 
-0.02173669735571954 
-0.01051194872058380 
-0.002330611819892179 
0.01654266797503767 
0.01130484732363595 
0.05764830272102126 
0.01062559199132510 
-0.02759255463188155 
0.008457943120173957 
0.02082883537547070 
-0.03903977321357975 
-0.1260910671692852 
0.01261647182490188 
-0.03565166064766515 
-0.03550512094004027 
-0.1689670129436902 
-0.01009912132691524 
-0.1160267016939575 
-0.03423212245443560 
-0.03069881297784880 
0.001981794129669042 
0.01719970086518976 
-0.04349498355608895 
-0.01007943415718147 
0 
0.02075182613313888 
-0.02725384142857955 
-0.009074991387866714 
0.03934891354446276 
-0.01246589605658218 
-0.04238859197752443 
-0.02331968148431317 
0.07468504866107460 
0.009604012980296646 
-0.05163592779970766 
0.01488838139951551 
0.08053558435882993 
-0.002488539802431296 
-0.01695954478255143 
0.03720526982635147 
-0.001248912768573818 
-0.04503023326698662 
-0.01784192506907880 
0.06814552148289010 
-0.01700095710359753 
-0.01702162092745165 
-0.004287547058847701 
-0.01627483945990109 
0.01024227035011231 
-0.006566439037348776 
-0.02371004441038232 
-0.01620454365805718 
-0.003423180917032293 
-0.01830313083802129 
-0.0001920224343926981 
0 
0.004277654751383664 
-0.01928601612002607 
-0.04444777482719358 
-0.03783045564126881 
-0.01537568203647522 
0.01351186891247993 
-0.03403925743692471 
-0.002344529201904129 
-0.02975092666482882 
0.1049546234198838 
-0.08379577981088977 
-0.1216280077592452 
-0.004624571429138734 
-0.02204655789674655 
-0.02839030529021822 
-0.02089963883357603 
-0.009225700776986513 
-0.04253260297101239 
0.004094959179842832 
0.001456447315837779 
-0.03236206474288798 
0 
-0.03064227759233992 
0 
-0.01984432040890300 
-0.03914768932253410 
0.005110840684826461 
-0.03697790368029068 
0.01090892362856460 
-0.05480162239367188 
0.04050725234822169 
-0.03929467605713304 
0.03761865058923593 
-0.01603732479585918 
-0.02432520259455140 
-0.01954654221889432 
-0.02072644841325754 
-0.03640418721180206 
0.006986293994802659 
-0.03791027869279959 
0.02030951410355531 
-0.01468863794243649 
0.05019586659759990 
0.01276356014325999 
-0.01963316139118905 
0.009341273161521613 
0.001421714154010385 
-0.02035124544277470 
-0.002868872377729740 
0.1095005785874511 
-0.002239952655692104 
-0.01600031853307409 
0.07393278728145185 
0.05475375611478202 
0.0006948914853060579 
-0.004303624325571707 
0 
0.04723906571929319 
-0.008866397998201898 
-0.02038001442644434 
0.03538332693188911 
0.02825391693724343 
-0.001202775931840441 
-0.03874945730930710 
0.0006683007710784931 
-0.02767989442324281 
-0.04936791505120355 
-0.02827111896771664 
-0.02833197694191107 
-0.06400033102520000 
0.006836744252683658 
0.1381361346500445 
-0.08863068960488815 
-0.01726787379474577 
-0.01031873398141218 
-0.004147725702940466 
-0.07792849473071631 
-0.1114994064012979 
-0.002474324946867821 
-0.001208600678081489 
0.01895020024917749 
-0.06639818722015162 
-0.0002894184815370477 
-0.009511136539955778 
0.1369011010535203 
0.01665805979314853 
-0.01183883295022536 
0 
0.0002779808650547320 
0.01149424042413110 
-0.01673978402014298 
0.01006428251716095 
0.02294578884789869 
-0.007045148384415273 
-0.01990018985013186 
-0.005946117125605601 
0.01313332601116990 
0.008576016087263176 
0.01717577995211176 
0 
-0.04046174908097867 
-0.01014029819463206 
0.001129472506609386 
0.03359857542918172 
0.06369178376690500 
0.01551746223365598 
-0.004303624325571707 
-0.01990018985013186 
-0.002620795585036825 
0 
0 
-0.02063828244002328 
0.02252229521994612 
-0.008223714320328744 
0 
0.01545492065127363 
0.005849554929798722 
-0.01190651851548562 
-0.08023436720109949 
-0.07559676320267819 
-0.04102775671688235 
-0.0003138196020220443 
0.005165849582263475 
-0.01867027485893793 
-0.003566745897251674 
-0.03122232782238771 
-0.01088509673041552 
-0.009999079823817385 
-0.002409523231256799 
0.02490234218829579 
-0.006718774494132242 
0.001342122778530715 
0.004655979333046954 
0.08003937762188601 
0.03787935391673924 
0 
0.002034499303448842 
0.01434056302582772 
-0.01312481496593236 
0.03199667723290858 
0.01937405108190913 
0.007760603567698455 
-0.02817370508486527 
-0.006654210576885904 
0.02315153558990752 
-0.1176418452520403 
0.0009724324410040873 
0.001028732206249400 
-0.04131357250914210 
-0.003219289925811091 
0.004052207555546390 
0.1023862366354570 
0 
0.01032137525518785 
0.06181040083831141 
-0.01095556705376476 
0.02575654013168546 
-0.01274406295946377 
0.04540686022058207 
0.01576544635666522 
0.04364741126098887 
-0.005231374064353047 
-0.03503940751508194 
-0.008314614028161955 
-0.01190540469793807 
-0.003849437374328847 
0.01180252374816851 
0 
0.02891467922308153 
0.0006695172931389538 
7.770441181503547e-05 
0.01884630259224101 
0.002932070132800638 
0.01527722423254923 
-0.006734517061799165 
0.02917400092971284 
0.02635405739933994 
-0.09230697216887760 
0.03682058430188787 
-0.0003330838039341868 
0.03011380543160703 
-0.0005017794324632196 
-0.02534781775782885 
-0.05390329349079145 
0.003881291758649033 
0.0001438823878528086 
-0.02713576124278063 
0.05494499949145188 
-0.01743094786037754 
0.01659151047882700 
0.01081693182401568 
0 
0.01135154193921907 
0 
-0.001148310355112340 
-0.01466428599260400 
-0.005030839820280919 
-0.002749915582793618 
-0.02085449741242602 
0.002859821523672998 
0.02275596410398817 
0.05437393160596327 
-0.02740440036215659 
-0.005880482245759345 
-0.01106683703089205 
-0.03741994303866795 
-0.02196247038756465 
-0.002409523231256799 
-0.01294488674778878 
0.0002562213191743339 
0 
-0.03723524545710354 
0 
0.01207461117575546 
0.01004925382440233 
0.02383305286020794 
-0.001595587798491923 
0.1994642255387591 
0.03885414100224977 
0.03968338729359727 
-0.02487501002232074 
-0.02487501002232074 
0 
-0.004168531535417415 
-0.03801544177741494 
-0.04190949620401472 
-0.01191859284140493 
0.009154334020591182 
-0.01992994583988783 
0.03106003837744519 
0.01283184074063071 
-0.01163758964215370 
-0.004946380574384689 
-0.01148083780393313 
0.01891745178065072 
-0.02215679810452862 
0.01860895873605705 
0.02231463865879117 
0.07921327975821253 
0.003828827225114588 
-0.03295450471950359 
0.01171359880138084 
-0.05459243690536178 
-0.008020986735793652 
-0.009121078193804430 
0.02475624059074362 
-0.009999079823817385 
-0.04466024836067300 
-0.009045325633734808 
-0.04315309428800931 
-0.01895366267611462 
-0.01570505877932761 
0.01722277063138839 
0.02013126694033896 
0 
-0.001436894680508911 
0.01712690019918703 
-0.01397084190356742 
-0.008298559783215769 
-0.05361128591983506 
-0.04104813244660389 
0.01166953389796510 
0 
0 
0.007782305394663258 
0.01344956791953351 
0 
0 
-0.006794384021641411 
-0.02705498255765192 
0.04682745834472297 
-0.002601871552300928 
0.02129474999151135 
-0.02070100646392258 
0.007817227648989298 
0 
0.06969049808337825 
0.06103611021115046 
-0.04778238630935222 
-0.008589472813783002 
-0.01425369714632706 
-0.01873067234683133 
0.01782747884173432 
-0.01329409930439597 
-0.08739173533012085 
-0.01884527107922429 
-0.009944824174470634 
-0.001002353813967863 
-0.01120883143852525 
0.01372133199426908 
0.005587737550774569 
-0.08207177032292279 
0.003831883058268450 
0.01885974786567446 
0.003444772596698070 
0.01621305314629699 
0.006689119603816653 
-0.04188141970947738 
-0.01114089080013051 
0 
-0.006275101763410936 
-0.03221139738611298 
-0.02720895174620666 
-0.002275751798940595 
0.02871214485567977 
0.01329919534945334 
0.01126694187397048 
-0.01621764243878256 
-0.02186813899452804 
0.03695243444209349 
0.01304790190643079 
0.0006718086142022074 
-0.008576317961542849 
0.01024922592854402 
0.04047820512512376 
-0.04177558559421025 
-0.1010808398863190 
0.01002529193075940 
0 
0.01348178806418463 
0 
0 
-0.002455647736369717 
0.08686994647476151 
0.009616016861175466 
0 
-0.04720449999946177 
0.01944153220789723 
-0.003945579044030561 
-0.01115697081417249 
-0.02749134474645469 
-0.002034826436766798 
0.02410833293948348 
0.04426845702483506 
0.008404866424810455 
-0.03333357944551670 
0.006802253217285287 
0.009782192991256718 
-0.001469788823195135 
-0.04888786263697556 
-0.01703319817372249 
-0.02898637263555006 
-0.006009738245854424 
-0.2464879109487849 
-0.01603259883868380 
0.009420958567911876 
0.01098914151139954 
0 
-0.02062244235885232 
0.01544584751986063 
-0.01136095280751089 
0.01795773451353771 
-0.01373970870802784 
0.01584305348042204 
0.01032137525518785 
-0.02162557898387497 
-0.02339992246185079 
0.01591761495512081 
0.01018141230128279 
0.1224099361832010 
-0.009151166686501922 
-0.009281325849257272 
0.04458075851311397 
0.009620818203551195 
-0.09017146854571642 
0.05378696089461246 
0.03833973846796646 
-0.05712358825568424 
-0.008754772345532104 
0.009345645645898197 
0.01078398081624637 
-0.002152526839687901 
-0.01142432009087121 
0 
6.220370299349744e-05 
-0.005880482245759345 
-0.06379032851894115 
-0.01337494231070341 
-0.2558137340198829 
0.002717226865285014 
0.03912321919410292 
-0.06848511469942571 
-0.01442317304983760 
0.01442590408194140 
0.001561301837543397 
0.005380338413730575 
0.02981977806262655 
0.01635240269341683 
0.006358595573438408 
0.1367308424891024 
-0.0006016669682869192 
-0.01554156643776625 
0.01253442938981499 
0.001013318282888463 
0.02508103713049694 
-0.02248176516396956 
-0.02048113920136516 
-0.003343688129742686 
-0.2181587303135947 
-0.01020908073681915 
-0.02945557727266212 
0.01650085757354423 
-0.04900263261162938 
-0.01954654221889432 
0.009232994063587270 
0.009623208898295480 
0 
0.02089409728201272 
0.001348862774404919 
-0.02975793898442147 
0.01273095155880917 
-0.03318232839540070 
0.01038839823762050 
0.01891745178065072 
-0.1296076669898593 
0.003389157119376809 
0.02062102487460752 
-0.001110493711581359 
0 
-0.01142001213503164 
0 
0.008649407318856581 
0.003192105072601556 
0.009982090309394799 
-0.001192667945292827 
0.05647636197327365 
-0.005769759572499219 
0.02219079008463215 
-0.001555833781073879 
0 
0.04388889660468817 
0.07596400595838572 
0.04174132484126115 
0.01734625432338977 
-0.005143768112369398 
0.02580907903161026 
0.02808800438411898 
0.01690557203381102 
-0.009478218227040083 
0.002447162188976045 
-0.0006501748523819286 
-0.2114119069678530 
0.04833887898303051 
-0.01465521826215511 
0 
0.06803803895277015 
0.01412492030308520 
0.01773155839924261 
-0.002620795585036825 
-0.003330085733056193 
-0.01231542404485459 
0.01660829827981845 
-0.006575887632024139 
0 
0.0005478750992187458 
-0.01824697878319856 
-0.03537668085034335 
0 
-0.03166353090759271 
0.01509692225845414 
-0.06779327764116859 
-0.05471886494106106 
-0.0007086275519058228 
-0.01055853658129126 
0.001311498095300097 
-0.0003385928376716668 
-0.01115657037146624 
-0.004798146937911732 
0.01126694187397048 
0.01305097168548314 
0.009731319102249916 
0.006618062198328955 
-0.04126533986521741 
0.02016380771545525 
0 
-0.01282611524862124 
-0.006155643822016874 
0.01337942129372916 
0 
0.02350147183383699 
0 
-0.01580757071746334 
-0.005046179008193717 
-0.01890847875587695 
-0.1077894975274597 
-0.3527850328447288 
0.008246907776292976 
-0.005627372285022806 
0.01378751721326635 
-0.02996264447478651 
0.003927708092634597 
0.005323153119133301 
-0.01315685670806316 
0.001270433318634282 
0.002278477424037174 
-0.01363047172324724 
0.004111432201161469 
0.01706217167727348 
0.001035657238400948 
-0.006569546077348229 
-0.02098689299874703 
-0.03048692777629500 
0.01305372790203489 
0.002791776960106465 
0.02282808408378059 
0.009813411316672287 
-0.0007965330704480995 
0.01517045943240275 
0.001342122778530715 
0.01556605885016899 
0.07676775755513152 
0.003723548370985416 
0.05241623860060950 
-0.03418308761628969 
0.0005256991629986448 
0.01272424022590328 
-0.01667187093551632 
-0.008633145743471383 
-0.04841530772205993 
0.008771846563699972 
-0.02936326653247130 
0.003197646508866090 
0.007860390432545302 
-0.01189131892418014 
-0.1635476952482924 
-0.02481719316862257 
0.005051086489210667 
0.1496422969547676 
-0.002620795585036825 
0.0002848973437400433 
-0.03530673225506144 
0 
-0.003352954294986074 
-0.0003385928376716668 
-0.01057341605290331 
0.001796775314047305 
-0.008020986735793652 
-0.02023495288281434 
-0.02012676450065107 
0.003444772596698070 
0 
0.01763489447560750 
0.004212063312578751 
0.02266658887457047 
0.01929079287448049 
0.01527722423254923 
0 
0.03648275725922473 
0.003881560012302281 
0.01378751721326635 
-0.01554016172544468 
-0.04271657421720673 
-0.03932079410742475 
0.005859013994374015 
-0.03316490591567160 
0.02458944638114392 
-0.01546859618304576 
0 
-0.01785185914197764 
0.1698608811167293 
0.01506525278846672 
0 
0.001444823317372869 
0.003995607112023769 
-0.01615955615305384 
-0.01725919965255123 
0.002735142704129711 
-0.03804549494356133 
0.005987598547120045 
-0.03872799293495288 
-0.0009060249678250233 
-0.004428023706793145 
0.02722209145113807 
-0.01230926327818801 
-0.01294488674778878 
-0.04646240987423466 
0 
-0.004017269644033279 
-0.08851662133406113 
-0.009710367509052520 
-0.02193554782632853 
-0.0005298853815807466 
0 
-0.01947706873720038 
0.008439300845111353 
-0.006915669261342782 
-0.001553298156226146 
0.0008921747363334828 
0.0001233071024062584 
-0.001068220687455948 
-0.01546501979380326 
-0.01245412204454485 
-0.007941368988891391 
-0.02694712220965337 
0.006865230258823634 
0.0006313244293468497 
0.003881560012302281 
0.005347579964871789 
-0.06034252479190639 
0 
-0.002441629527984618 
0.004326101770151782 
0.0005774004981641987 
-0.005873824709510705 
-0.01743094786037754 
0.0001233071024062584 
0.01205599198931066 
0.01777248073091615 
0.02580907903161026 
0.07606722426072196 
0.03008646864420565 
0 
0.003622445732889378 
0.0003934626379292230 
0.002624001650976621 
0.002644380936015408 
0.002143776389070395 
-0.01099836403584699 
0 
-0.007994115176826460 
-0.01167199424758295 
0.005402087038148805 
0 
-0.0002727255792276880 
-0.0002727255792276880 
0.004248207890271251 
0.009765798639239742 
-0.03941016847059480 
0 
-0.01249010373353557 
-0.004243288158262491 
0.01198676740738221 
-0.009999079823817385 
-0.006947485536106269 
-0.05111686660794382 
0.001215010248857042 
0.02334875758800017 
-0.002223961212473653 
0.008548582315248151 
-0.03373260218862722 
-0.001176637954258923 
-0.09312776377142468 
0.04951740892965538 
-0.005849330995961742 
0 
0.09713793278520043 
0.04149989505236745 
-0.01786669084584153 
-0.01080938106892961 
-0.1586532892597611 
-0.004025155770064744 
0 
-0.0007164987805321141 
0.005110840684826461 
-0.02262021409710403 
0.04687231863777190 
0.04480341532875681 
0.0007698959910965504 
0.01078398081624637 
0.02175263919780406 
0.004692727140741640 
-0.03560782605888108 
0.01767103666906078 
0.006965376474437833 
0.01506746299089439 
-0.02021982043294688 
-0.01108790978246017 
0.01495790781359318 
-0.001642541480953707 
0.004462631814704732 
-0.01541581879066122 
0.005987598547120045 
0.01218348816171682 
-0.06913017456950052 
0.004207587017827558 
0.004874610545537973 
0.004874610545537973 
0.1898769137804310 
-0.009571438671955979 
-0.01536554194272663 
0 
-0.1944886827791538 
-0.007269359209302845 
0.009293418426407740 
-0.07986130947919315 
-0.01964062210751129 
0.001594017809192041 
0.01399813160738117 
0.006836744252683658 
-0.006579832048400527 
-0.01007368976591665 
-0.04026923679331376 
0.01439179344918148 
-0.001591472172854939 
0.05344088071228614 
0.01211709767257732 
0 
-0.03555170930103892 
0.06568829950581614 
-0.1090153213069168 
0.005344547739407881 
0.01011946633145446 
0.01828018522570279 
-0.02465075220044604 
-0.09430384436938283 
-0.05245820114947409 
-0.003156373209858903 
0 
0.04153474423153446 
0.008599039004713451 
0.01600596610229433 
0.06183817038708105 
-0.01245136979054174 
0.01958959529143959 
-0.01571338773145126 
0.02116897531846774 
0.01171584555320059 
0.008276593584698575 
-0.001395944055742953 
-0.01993297290609750 
0.003539347880675791 
0.001630758592889379 
-0.002942213085136964 
0.2278396197455158 
0.1005787602582465 
0.01393810411813783 
-0.06835405709258070 
0.008576016087263176 
-0.001105603729039566 
-0.02518999593820994 
-0.04313073465995166 
0.02686390655255922 
-0.08483514406360443 
0.01914153450951129 
0 
-0.007215152812527134 
0 
0.03407590393256179 
0.01916333609771210 
-0.001727289365424477 
-0.03702679162756989 
0.03793862463462869 
0 
-0.0003093448553801994 
-0.001631393413096013 
0.008372830345592067 
0.03300697460521903 
0.01759734104327526 
-0.006269402012666113 
-0.02016508975311747 
-0.01127391489649231 
-0.005765509157944849 
-0.007269359209302845 
-0.02830703246230859 
0 
0.0006096105659325892 
-0.02931309583642101 
-0.003048309400342630 
0.01215466907853685 
0.01895844395662267 
0.03802248010437803 
-0.002049530293013160 
0.02092840988155040 
0.0001573081604512824 
-0.1176883458603713 
0.02598297629580146 
0.0009926817169057360 
-0.008337794914474042 
0.009273083505349150 
0 
-0.02062653824265750 
0.01624362645096922 
0.002743672102603807 
-0.0005745350536950182 
-0.02543498272562542 
-0.02350432606152262 
0.001919942651311173 
0.02194138145226623 
-0.01347952432646928 
0 
0.02116897531846774 
0.002548255916437639 
0.001232345197052500 
0.003352601833268375 
0.01873307910916238 
0.01078398081624637 
-0.01034769630535186 
-0.03987435396352229 
0 
0.01707316150664166 
-0.07640985479305701 
-0.004168531535417415 
0.1115918559029679 
0.005347579964871789 
0.02129474999151135 
0.004410483490717438 
0.07857621502859631 
0.03044752265522086 
0.01946938886834037 
-0.008121238333110000 
-0.007432186783957293 
-0.007756108918164803 
-0.01106683703089205 
-0.02078191679229671 
-0.06536793861680666 
-0.008561964504795221 
0.2021105852667666 
0 
0.01698399807701900 
0 
0.04179674835409555 
-0.05144487589766972 
-0.01170818894795705 
-0.1702562416740751 
0.0005955313343835773 
0.008032792435885260 
0.4083602160643938 
0.007373397296313326 
0.2689399693090793 
-0.01581613762414836 
0.007637940237268001 
-0.01871078341157891 
0.003501734187963426 
0 
0.1666311157517435 
-0.01069964241538886 
-0.1070911126066865 
-0.003437559149954308 
-0.009095263067675729 
-0.01640115641720604 
0.01062155283989650 
-0.007941368988891391 
0.01304744112966039 
-0.003089443481950299 
0.01021556863480955 
0.01819027630506324 
0.009524249418178731 
-0.01613237526304576 
-0.01504740777282497 
-0.02131069267337028 
0.02909735341674753 
0.05255914254214236 
-0.05550120420891448 
-0.005259904262052658 
0 
-0.004183011830651111 
-0.04720971354350330 
0.06057742160196036 
0.02192076205807992 
-0.004269628536145820 
0.01262348757321939 
0.03634398555053885 
0 
-0.04487229180614668 
-0.006532633494976435 
-0.009591403736239255 
-0.01926823145028482 
0.02539291140414849 
-0.03215508381964699 
0.02343946182613901 
0.01535755940646173 
0.02087127671934350 
-0.02933622268076440 
-0.0006733944880701382 
0.0005563017848455808 
0.1767851079888627 
0.1912670860477522 
-0.01817678545129692 
0.008839897225336853 
0.06306583803260474 
-0.005089829395926282 
0.003529221732941094 
0 
-0.008386780102276790 
0.007527790692600105 
0.1135707683213734 
-0.08274491637871997 
-0.06389257895407094 
0 
0.09286799188932929 
0.1453571224646916 
0.005043194727326906 
0 
0.005790079080022242 
-0.02629071405371341 
-0.02814511387096301 
-0.02814511387096301 
-0.003130801344339346 
-0.01954654221889432 
-0.02671659162718611 
-0.02008888839099730 
-0.01243603469020118 
0.003444772596698070 
-0.007392057951397728 
-0.05285930395024148 
0.02848283568309356 
0.02083798719525282 
-0.03211316334325456 
-0.06562504214493012 
0.008398313092116848 
0.006641255429423136 
-0.01675958404292132 
-0.006713010915675539 
0.01514954115180862 
0 
0.01352662360522591 
-0.01865075354408171 
-0.008875682642958163 
0.01947087546339309 
0.05488794155002795 
0.01654305948714198 
-0.002924777470935099 
0.01244993098382747 
0.04003380713471625 
0 
-0.2058878972877386 
-0.06469201981562257 
0.01461256213126925 
-0.01664730419206063 
-0.01435367347667384 
-0.01265345404599328 
-0.03827085487229850 
-0.04022994297563742 
-0.02193878480931424 
-0.03737731023126837 
0 
-0.007432186783957293 
-0.01438301835869609 
0.001342122778530715 
-0.01282597014896327 
-0.03151027494435962 
0.03410217602207613 
0.01200556911333932 
-0.06894575524661184 
0.001453427242295293 
-0.008121238333110000 
0.03617809111323511 
-0.1583308018160431 
0.006484727071446655 
-0.007069540954800177 
-0.03287177002539109 
0.003973161186484417 
-0.0004920155139086581 
0.06609194522195355 
0 
0 
-0.007798735409997754 
0 
-0.05953725595131678 
-0.01040287560654358 
0.01905413352246479 
-0.02498285597298859 
-0.009336220074878518 
0.006950068001698192 
-0.03546422686501813 
-0.002152526839687901 
-0.02057461551559174 
0.008864325066368474 
0 
-0.002318982630400164 
0 
-0.01103944941515335 
0.03388563290633201 
0 
-0.001265335350934383 
-0.02365157644717921 
0.0006718086142022074 
-0.03266177083131450 
-0.02685856710017172 
-0.01889907043600118 
-0.008639261508187446 
0.009784663675593028 
-0.005259904262052658 
0.002265832413325378 
-0.0005010848033169695 
0.009313877392634700 
0.004736243244763235 
0.05278934192167785 
-0.003271154318628196 
-0.008023558647147308 
0.01367849552123926 
0.01840990875752932 
-0.0009026409827368237 
0.02941698355019848 
0 
0.1006471650556085 
-0.01163505266060563 
-0.01163505266060563 
-0.001637259125984071 
0 
-0.003723552344028532 
0.0004008289095243810 
0.02017538727094769 
-0.002786820851373290 
-0.05990938795176594 
0.02604853155817315 
-0.03447551870604945 
-0.0005298853815807466 
-0.01230926327818801 
-0.01456100414377732 
0.003423975702360002 
0.01231404444240486 
0.005043194727326906 
-0.01287513002525802 
-0.01563414343731305 
0.006548417115496771 
-0.002474324946867821 
0.009623208898295480 
-0.01334297025164748 
0.01243510348699093 
-0.01492387905185657 
-0.009105419186557278 
-0.002057613213537098 
-0.002620795585036825 
0 
0.0002848973437400433 
0.001543186252080685 
0.1323688157490945 
0.03927859405992620 
0.05935937102641961 
-0.01029462851684032 
-0.05345279905213839 
0.002368145036224756 
-0.01000595944077323 
0 
0.008234496564575440 
-0.001555833781073879 
-0.01296040570485586 
0.008720699552642265 
-0.001521397814451210 
-0.07790757359902523 
0.007820407880632827 
0.01211939974958469 
0.01969535487009632 
0.009457667006616897 
0.004976077864935999 
0.01239387573261196 
-0.02228452959397980 
-0.03633272645414841 
-0.002428450282535151 
-0.02768516291372505 
-0.005191304968737332 
-0.05956325356306223 
-0.001631393413096013 
0.02415997810996087 
0.01590916215302074 
-0.01257812454361087 
-0.01439081295136825 
-0.007778689901944315 
0.01260960505209700 
-0.01265345404599328 
-0.05527769162126851 
-0.01774306857970172 
0.02446552980389172 
-0.0008042079246861214 
0.02656088448402311 
0.03251545637456330 
-0.01403947056978431 
-0.003528813520216528 
0 
-0.02951524807889818 
0.006929487537597245 
-0.01257217992206630 
-0.01675767279099459 
0.001684890576431267 
0.02146821293926883 
0.009589667088297095 
-0.01130957306676638 
0.01508759234838697 
0.0002009921253928501 
0.03595185191728061 
-0.007511875658855360 
0.0005559469918178577 
0.005449264712363294 
0.0001532777499114110 
-0.008659570872778825 
0.002746845217096197 
-0.03827483329520541 
0.1151019055222862 
0.008472216774450451 
0 
-0.005769759572499219 
0.01304722452323069 
-0.03565799309672801 
0.003723548370985416 
0 
-0.02746848108039075 
0.02981967335870137 
0.0003984536765939474 
0 
-0.03168022352101065 
0.001130624671269474 
-0.001009845745334274 
-0.06274975094486200 
0 
-0.009162839463145965 
0.0007698959910965504 
0.02826827583805042 
0.02669818430691937 
0.002123206346448929 
-0.007266752312080528 
-0.004861473074405254 
0.01715888773954401 
-0.0009675331806625750 
-0.005632524761075073 
0.1574512880774776 
0 
0.01959181439704276 
-0.003648195126297210 
0.008239381419246380 
0.001115024435874732 
-0.04046174908097867 
0.01351186891247993 
-0.05693724187150998 
0 
0.005965435154997981 
0.008153905082703649 
0.01527722423254923 
-0.01780750250466927 
0.007160864747650896 
-0.007829011807385032 
-0.02287718753616222 
0.008955838183191667 
-0.01870453588065531 
-0.02631731839347621 
0.09280806451566247 
0.008812940445108053 
-0.003749311020850107 
-0.02310142393010184 
0.001349069657714475 
-0.01463687750774725 
-0.01675958404292132 
-0.03415518497497547 
-0.01648359915314739 
0.001710339673492598 
-0.05415755804402404 
-0.1123399954290386 
-0.06435212453506530 
0.03332795609542204 
0.05205283302795455 
0.003692140062866575 
-0.01645000179932646 
0.008746135767499868 
-0.01400877483945585 
0 
0 
-0.008024045849840618 
0.0007933215185043246 
0.0007063397192710406 
0.005790079080022242 
0.002962318101457257 
-0.001202775931840441 
0.008932977015004180 
0.009133580342833300 
-0.001377042243612887 
0.003642874656938265 
0.01396666297752282 
0.03732962091874511 
0.02236378867204709 
-0.06578826691068798 
-0.05296520241391901 
0.004312523804491478 
0.01909449806414779 
0 
0.01331971046301238 
0.006067269442902611 
0.07175461422974323 
-0.001499861687265516 
-0.006947485536106269 
0.03598553866299131 
-0.02507554114721078 
-0.005731936383150498 
0.005965435154997981 
-0.002381791901853012 
0.02190480944710650 
0.01920469805086538 
0.05745723918053673 
0.002343598845255112 
0.01441588203650206 
-0.006801745927791847 
-0.01414778805061016 
-0.2003551482039686 
0.009524249418178731 
-0.06188478693937988 
-0.02350432606152262 
-0.01264061773254031 
-0.03732817453048707 
-0.07911215635251125 
-0.08290874910867688 
-0.005333836554878514 
0.01662212235990469 
0.01535486525935792 
0.02278290201936287 
-0.02784575347840521 
-0.001979101092903399 
-0.001979101092903399 
-0.01703319817372249 
-0.2122595724858064 
0.01396666297752282 
0.02415619612113843 
-0.002051248470346772 
-0.007778689901944315 
-0.02353134562199813 
0.001889411633997156 
0.001215010248857042 
0.001561301837543397 
0.02275596410398817 
0.01210941407782508 
-0.001631393413096013 
-0.04266242837448605 
0.0001233071024062584 
-0.07989024240146922 
0.03364547099028709 
-0.01301525001156997 
-0.02937890715942067 
0.001232345197052500 
0.004729809717685354 
0.02569187372995751 
-0.009336220074878518 
0.05481146953120970 
0.01579320266061968 
0.002966275804462584 
0 
0.002688985901869302 
-0.001976647756764235 
0.01455287201711726 
0.001918344076305939 
-0.008257807746550421 
0.01507017847408485 
-0.0005446723529645362 
0 
0.02424908458493603 
-0.01532304696445249 
0.1562205282965385 
-0.03729296795783904 
-0.01441233628400161 
-0.1042619740996367 
0.1699047607469972 
0.01956718318672905 
0 
-0.001056066898807719 
-0.09774618207295432 
0.01160587748481874 
0.001516511061104328 
0.01509692225845414 
0.003821950571543670 
0.007771761451333129 
0.01628594401073205 
0.001561301837543397 
0.06523129246481796 
0.01081693182401568 
0.007302687275376375 
0.005767474282636938 
-0.01556694825204422 
0 
-0.002275751798940595 
0 
0.007990092460247095 
0.002361327139061779 
-0.004157923228945815 
-0.008549716433406334 
0 
-0.05560574792400557 
-0.02217042825251662 
0.006516645956719578 
0.009000557459916484 
-0.05911320803859536 
-0.01806640196111734 
0.02091308588931626 
0.03133239230236539 
-0.02917837281890253 
-0.009000682614834799 
0.01118412007398836 
0.004603745888732786 
0.008288065255178785 
0.001348862774404919 
-0.002069979328934116 
-0.06902436539373072 
-0.01384319838445636 
-0.02804348244967205 
0.01421286779065036 
0 
0.03239820697669833 
0.03135136460204530 
-0.001637259125984071 
0.01937251338620699 
0.001561301837543397 
-0.03127937665077775 
0.01547418812792937 
0.03751155601023690 
0.08315270964270420 
-0.02739911644931347 
0.02440631096220647 
-0.03202875871603753 
-0.01115585348726954 
-0.06189391266346674 
0.01168125813737146 
0.1293461394701446 
0.0002284489839884856 
0.0001765926411700523 
0.005762686931384892 
0.01396433249982170 
-0.03288723693451345 
0.01812757442839794 
-0.02336871225024260 
-0.03619864136084890 
0.06374729174966749 
-0.004962642974161770 
-0.1288646025199539 
-0.005767517886031968 
-0.02531173054454874 
0 
0 
0.006871329916461646 
0.01392700961340988 
0.01845811369618777 
0.02280551833016293 
0.005762614938882232 
-0.004804576296919265 
0.01063751971016727 
0.02888688762771766 
-0.01685385209907617 
-0.02215679810452862 
0.01617116243384630 
0.07189094109765763 
-0.04259989267629186 
-0.006702927882976231 
0.03974229324316127 
-0.004447465772455746 
-0.009414878777111480 
-0.06980081997454640 
0.02492649524513116 
0.005856126120024062 
-0.009849794620794300 
0.04771705160383414 
0.002450154465204938 
0.004603745888732786 
0.01396666297752282 
0.04661711733601488 
0.002039686534212911 
0 
-0.01103944941515335 
0 
-0.01456799902201448 
-0.03778214011325477 
-0.01008523700462641 
-0.01898720940296614 
-0.01167761306606813 
0.002196476038781469 
0.02253310923397331 
-0.1667710503780850 
0.003474277461049528 
0.003923885644689328 
0.02178033664991119 
0.008864325066368474 
0.05479806316266496 
0.04508021834299451 
-0.05692360263290069 
0.0004417736782324428 
0.001201058202322812 
0.02183353665181263 
0.02792235067880110 
0.002301282964196045 
-0.004054192254000827 
-0.005904347161756586 
0.04921158551204357 
0.002297023499111398 
0.09991600240491263 
-0.01296040570485586 
0 
-0.01055654192353315 
-0.01156269254812709 
-0.008480689969159037 
-0.05344555285081043 
-0.05270808895253548 
0 
-0.0009015616178876429 
-0.04688575490272130 
0.001734959301738212 
-0.005654067549148226 
0.002483012065175687 
0.009133580342833300 
-0.01774306857970172 
0.01742669260373015 
0.007377082282401515 
0.03122494164686648 
-0.04888164340841315 
-0.02071904473795215 
0.01310766982765410 
-0.06711849128647633 
-0.008589472813783002 
-0.001886822741313752 
-0.02150354979262139 
-0.02251176151034997 
0.02918902498119559 
0.002709286836197326 
-0.04007056781868772 
-0.009156414461947596 
-0.006734068906756688 
0 
0.006076816396613692 
0.01527722423254923 
-0.003304623833195270 
0 
0.1315583608066671 
0.02039143690841720 
-0.01356173607992788 
0.01261200715267661 
-0.01252870280940469 
-0.01294488674778878 
0.03537535007554321 
0.001687076541163931 
0.05365658943211703 
-0.003214206625487443 
0.002343598845255112 
0.1309114702589428 
-0.02907232761675470 
-0.04509147869251327 
-0.002152526839687901 
-0.03470375256911693 
-0.1601090973328291 
0.01326862713795371 
-0.008736520244753089 
-0.04691467312135806 
-0.01078727578718177 
0.002271560900660552 
-0.03288723693451345 
-0.01183883295022536 
-0.01330025452417528 
0.3821990753445531 
0.05146004639186209 
0.02577099886403535 
0.1740385467269758 
-0.05612619701899674 
0.02547557191593875 
0.01597552915346183 
0.06094907174446060 
0.04788003375218706 
0.1042518616876533 
-0.001631393413096013 
0.02811948636035237 
0.009443348045430568 
-0.02962892550990690 
-0.1946972129061413 
0.04193238600206280 
-0.03316796306896937 
-0.002381791901853012 
0.04430888953910623 
-0.009017700117917103 
0.01527722423254923 
-0.01304915234770512 
0.0005011783379980693 
-0.008373667627259131 
-0.01453090745153303 
0.01198536426514594 
-0.1092175984409374 
-0.03091560215973846 
-0.05306093215353684 
-0.06391031558025145 
-0.003516172186026352 
-0.07157789503507050 
0.04367822224051708 
-0.04106854473537994 
-0.04237582661606419 
0.01461500565153724 
0.001788381539100503 
-0.04159423609280110 
0.01205849644191108 
0.03099674184606757 
-0.02419086102111030 
0.03740368249405807 
-0.004659522030385976 
-0.006566439037348776 
-0.009677949347318957 
0.01860895873605705 
0.002966275804462584 
0.01503000927409898 
0.004893718116227070 
0.004641194722224514 
-0.06987146447118421 
-0.01845561063771952 
0.008198328580647963 
0 
0.01785887816384094 
0.006312630786741429 
-0.1237930332183503 
0.08492208372585917 
0.001728743855996372 
0 
0.01310016440043824 
0.006424090989584703 
-0.009214392374617332 
0.01871575019974865 
0 
0.006219324692717723 
0.01310016440043824 
-0.01898720940296614 
0.02826670083772773 
0 
-0.01935599641082449 
0 
-0.02125242184123886 
-0.008335945642319417 
-0.04940723004757668 
-0.01590878089349769 
0 
0.01036468290815538 
-0.008639261508187446 
-0.02273274607006552 
-0.01878621727757330 
-0.0008799126529263636 
-0.008453759774225826 
0.005643604754111482 
-0.05487703792465608 
-0.02119102180366839 
-0.01931574437302240 
0 
-0.01839601575144220 
-0.004428023706793145 
-0.0008517278323890026 
-0.0006501748523819286 
0 
-0.02492278745002519 
0.01899620102551214 
-0.01319513519586020 
0.008869928807971330 
0.01649423792197664 
0.01131568771257547 
-0.07204834360671172 
0.01774170485067226 
-0.02780000410629234 
0.0004096007472290126 
-0.02273274607006552 
-0.03072946300962256 
0.006190800416302487 
-0.002509981766558264 
-0.01414047706376670 
-0.01821861097314342 
-0.04144029971680033 
0.1553969729016869 
0.02094760386097538 
0.008736629050332368 
-0.02021613980773893 
-0.01386158830750364 
-0.002275751798940595 
0.01531085060472865 
-0.02310034346988343 
-0.04166839961709996 
-0.007774353157429395 
-0.01479523263991697 
0.01289028744479854 
0.0006718086142022074 
0.06175842075186680 
-0.02063828244002328 
-0.01881414145357601 
0.01545461751158057 
0.01545461751158057 
0.05749970216192603 
0.01386641388262959 
0.01167809121001471 
-0.01014029819463206 
0.01666824910746282 
0.03395397172258719 
-0.009711701431518513 
-0.1426551348798049 
0.0003984536765939474 
0.02535427560751554 
0.001064445172604832 
0.006477267178994306 
0.05332845821329196 
-0.01972584898482183 
0.002769472858680131 
-0.007865629592438722 
0.09179776426540390 
0.0003834818837061045 
5.237924834239002e-05 
0.003699048280986770 
-0.02215679810452862 
-0.05401086986680345 
0 
0.006760705015341734 
0.01770574772363442 
-0.0003022321583238722 
-0.02972793423245611 
-0.004139898235610203 
0.0004631061531699598 
0.07179362175480439 
0.02941698355019848 
-0.01700095710359753 
0.005971016617332575 
0.008874867306272620 
0 
0.01216024909387465 
0.05253437850482470 
0.03783955854825787 
0.004008357170570521 
-0.009120134239948906 
0.01605488229920837 
-0.03602731478898082 
-0.02285600028321146 
0 
0.006340280717969955 
0.03331010513709637 
0.001348862774404919 
0.001657264097923954 
-0.01273834152082157 
0.0004430512782813041 
-0.0004104437477267242 
-0.004913112224693135 
0 
0 
-0.009999079823817385 
-0.004183011830651111 
0.01116925810384983 
0.01356968814143200 
0.03692703230485705 
-0.07966447029358496 
-0.08258355316080025 
-0.04046174908097867 
0.0007606473303054565 
0.01760752351424518 
0 
-0.02169786579747642 
0.01140256685821906 
-0.04225676661622371 
-0.01119709959822856 
0.05669041385578531 
0.02780536011520490 
0.02280051152524350 
0.001728743855996372 
-0.002422234278045610 
-0.02373841277279437 
0.01538092553097682 
0.04161319419098612 
-0.1700425671019379 
0.03004640606208275 
-0.02956012446123398 
-0.06722826071555811 
-0.05428342300238680 
-0.007448151360122399 
0.005102203466201683 
-0.006478222345889755 
-0.03393839325536763 
0.001064445172604832 
-0.1067651712445585 
0.009175100253958860 
-0.003566745897251674 
-0.02116065203307163 
0.5765932859527481 
-0.06407610731655988 
0.009608339676848009 
0.04595006089406167 
-0.001932790791904830 
0.08879201051141192 
0.1026331792864464 
0.01391181652903836 
-0.002244451261504905 
-5.161111360516761e-05 
-0.01764309983306653 
-0.01033147687207445 
-0.04209483830223729 
0.01571586103297177 
-0.01707982310432402 
-0.04102775671688235 
0.01398842829217867 
0.02068346166864310 
-0.01668249498639915 
0.009741992238422110 
0 
0.01352955754177676 
-0.002884203662144497 
0.03351889598332048 
0.04799487423237674 
0 
-0.01820973335739962 
0.1032957895234793 
-0.01807546661233903 
-0.03673346602464032 
0.02960368030564982 
-0.005603378089899442 
0.3614692623341220 
0.009510256168127099 
-0.0006490256719945053 
-0.01685385209907617 
-0.003088615953335218 
-0.01265345404599328 
0.01330059029871490 
-0.0007327871450038626 
0.02534943114861737 
-0.02295983837819327 
-0.06036384990458388 
0.02193638251817515 
0.004695438008451189 
-0.005259904262052658 
-0.01626331514219611 
-0.03159764898722498 
0.05112416423436585 
0.004473006286601829 
0 
-0.005904347161756586 
-0.005143768112369398 
0.02867683909265145 
-0.006719269866710387 
-0.01954654221889432 
0.02739658268742905 
0.005564363690790247 
0.01343283359681709 
0 
-0.04287371727955815 
-0.002935134191605600 
-0.3641903356226192 
-0.05132075621829384 
-0.02331968148431317 
0 
-0.02582049378875144 
0.04400112778121545 
0.04646229389497467 
-0.06748025733982334 
-0.01464940110758486 
0.01844246395597405 
0.01685563442865768 
-0.009239859552343820 
0.03107133277400393 
-0.03959671742971467 
0.003176599629568322 
-0.04352082549522671 
-0.006002065652647742 
0.03137470154658769 
0.005362236882915249 
0 
0.01449122596730498 
-0.003555431283213400 
-0.008798171735316670 
-0.01425369714632706 
-0.003769854117610869 
0.02444855055330869 
-0.001908825967934064 
0 
-0.007941368988891391 
-0.002462358086004236 
-0.02528465668904071 
-0.003431284793712579 
-0.02432520259455140 
-0.008112759217849708 
0.004729809717685354 
0.01044756559790759 
0.002626987572659340 
-0.01958273992161337 
0.01482712509874967 
-0.01081518593294443 
0.009521972422402089 
0.005909937998502604 
0.03749873792432323 
0.04207976699768731 
-0.002620795585036825 
-0.01148083780393313 
0.7602246135716790 
0.004668768308026374 
0 
0.009326790943788493 
0 
0 
0 
0.04873823548111139 
-0.02294282580619022 
-0.002567016408615602 
0.01036638889727043 
0.01032528655622235 
-0.003012514350626318 
0.005362236882915249 
0 
-0.02165844338990516 
0.2397591265839850 
0 
0.06088693566699024 
0.01322350991367488 
0 
0.006313131281438606 
-0.01994811628399919 
-0.01472223310883285 
0.009407257924612687 
0.01536343901861062 
0.01398842829217867 
-0.08272198934512187 
-0.001476302980193040 
0 
-0.02282764640305456 
0.01582817541818361 
0.006476268525897810 
0 
0 
-0.04535713201731097 
0.03487337191306823 
-0.003183652735059901 
0.01715888773954401 
0.004196732949581908 
0.01188136532118051 
0.01509988911708469 
0.02480284811520522 
0.02669104877550540 
-0.04193992755991058 
0.01283184074063071 
0.001204554949917004 
-0.008576317961542849 
-0.0005935164185546511 
-0.01847358730034441 
0.003512296891219545 
0.02228468855886998 
0.008700487849551890 
0 
0.008239381419246380 
0.04895075385254084 
0.004679900435377886 
0 
0.008323773308693366 
0.004553811803791944 
0.02266658887457047 
-0.008411055697290592 
0.02141330073468437 
0.002090389903085359 
0.05230949103855308 
-0.04331174097368225 
-0.03943321018351683 
-0.02985168688826956 
-0.04955789585147873 
0.009985598205569296 
0.01475297651067091 
-0.02709205931474437 
0.001217261371033831 
-0.01881883665816140 
-0.007559020070953848 
0.004729809717685354 
0.06793268903905984 
-0.01085458009299401 
0.01508759234838697 
0.06975116185514442 
0.007784078889142947 
0.05535059461774394 
-0.05907432652411181 
-0.04278415806301559 
0.009731319102249916 
-0.002929654854934145 
-5.161111360516761e-05 
-0.02292219913247729 
-0.004344176978351268 
0 
0 
-0.001009316407888291 
0 
0.04014809972227905 
0.02440475044446470 
-0.002715790207514186 
0.003027154974429673 
0.02053780738945705 
-0.02027154876429849 
-0.04912361627735721 
-0.03365920688730728 
0 
-0.01382975115474416 
0.005294949089664981 
0.005347579964871789 
-0.01267136692124707 
-0.01019475324041197 
0 
0.006339624412005258 
-0.02702093903094592 
-0.004303083404840260 
-0.004535338529510594 
-0.008934352192343427 
-0.04689411902105708 
-0.01764085203251289 
0 
0.06579087910670557 
-0.01811603892197081 
0.05346313721870405 
0.04630568839546626 
-0.05863417154050032 
-0.04720273205544229 
-0.09616422506952739 
-0.02011664353221439 
0.005947991427581335 
-0.005632524761075073 
0.02950101158781735 
0.07731405577848308 
0.01304657614157798 
0 
0 
-0.002212316314313552 
-0.01481708597411188 
-0.03656444881562081 
-0.005632524761075073 
-0.03350573997471712 
-0.01514546028733848 
0.04359099749010079 
0.08932714444583503 
0.02213997236895499 
0.01598979402149590 
0 
0.02344480871538971 
0.007615128799366143 
0.009623208898295480 
0.009313877392634700 
-0.01571361477533502 
0.01030518585968213 
-0.004168531535417415 
0 
-0.02842575713111131 
-0.01253386133313140 
-0.01195374719548159 
0.02830733378841919 
0 
-0.03324861657891810 
-0.04119493886718872 
-0.01180336306787528 
-0.02950495079329506 
-0.001637259125984071 
0 
0.02711177938300348 
0.004719515958043954 
0.002298412878819124 
-0.03823408703416398 
-0.03836259949281809 
0.02548261850708439 
-0.008639261508187446 
0 
0.002131860664037715 
-0.02777744106367500 
6.220370299349744e-05 
0.02883900108834139 
-0.08546038541191002 
0.004742708819833740 
-0.02501546712574874 
0 
0.02821121718675341 
0.0009926817169057360 
0 
-0.01004224366260680 
0 
0 
0.09547361379145530 
0 
-0.004036181298465338 
-0.004483478826032486 
0.05683397131337106 
-0.005346456122361890 
-0.01456100414377732 
0.003881291758649033 
0.03059164887693732 
0.002090389903085359 
0.02722603373008263 
0.002371163967118319 
0.005812918457244447 
0.008576016087263176 
0.01828139079964892 
0.02676642824288718 
-0.04828938283153938 
-0.03062567914466092 
-0.02063828244002328 
0.01452585577451994 
0.01078398081624637 
0.03757930447469881 
-0.01160773178287324 
0 
-0.009660985278297323 
-0.006977475438261221 
-0.003156373209858903 
0.02869601328405014 
-0.006232056664906116 
0.02446552980389172 
0.1875245175586815 
-0.0008517278323890026 
0.02686390655255922 
-0.03670893960427511 
0.01462579731349124 
-0.03419761466760493 
0.03607913144664256 
0 
-0.005030839820280919 
-0.01015579871550326 
0.01498577163828454 
-0.01705230805792004 
0.005987598547120045 
0.01611956231575657 
0 
0.01305097168548314 
0.0008967233184808257 
-0.01785185914197764 
-0.05811314172915207 
-0.04007798276917080 
0.02937588379434470 
0 
0 
-0.01785185914197764 
-0.03095203834988113 
0 
0.03548744686005367 
0 
0.02767215410389879 
0.02010679930392623 
-0.01397260641961473 
0 
-0.01195374719548159 
0.05029672978849902 
-0.008019159659224409 
-0.01990072138956173 
-0.004515070466391225 
0.06369416045743880 
0 
0.01352201527543008 
-0.001555833781073879 
0.1248901987598665 
-0.07221987972883500 
0.01458910235711340 
0 
0.01240622395463089 
-0.03531621795572903 
-0.002275751798940595 
0.01126984622753617 
0.04594913448581555 
0.03701943794905654 
0.01398842829217867 
-0.003214665147214499 
0.01067222678172600 
-0.1343712916813100 
-0.01137546365746921 
-0.03391350147464002 
-0.007677411064082906 
0 
0.02266658887457047 
-0.01909076513007799 
0.05530155043746703 
0.01305097168548314 
0.04288538400735805 
-0.009972544354547420 
0.01296508168589930 
0.01329919534945334 
-0.004243288158262491 
-0.03474674940663994 
0 
-0.0001772322552175435 
0.01149424042413110 
0.006407693086938974 
0.0005774004981641987 
0 
0.01254533325800279 
0.05361090055505085 
-0.06732099603902620 
0.01476389641178367 
0.01193931820098022 
-0.02932018932164484 
-0.05571651491666356 
-0.01502785709682776 
0.005790079080022242 
0.04035685078546137 
0.04233550233893237 
0.01463257697385538 
0.002485630095046732 
0.002267212544538386 
-0.02756828210441241 
0.06972457207329498 
0.03350583686816297 
0.008398381890781995 
0.006061281563089249 
-0.0009939297114452360 
0.002925513873914538 
0.1053668407057535 
0.01352201527543008 
-0.01104358628415580 
0.05977978213044986 
-0.01693601339298850 
-0.007473232646379413 
0 
0.01611860708051366 
0.02037599207550048 
-0.01007943415718147 
-0.03988171382627107 
-0.03252217510723381 
-0.004797929572549361 
-0.004428023706793145 
-0.1931143380984076 
-0.0009439538692004642 
0 
0.02175263919780406 
0.003723548370985416 
-0.01700095710359753 
0 
0.02940281529587426 
-0.002825730442766491 
-0.008330123044503045 
-0.005314630468225881 
-0.005314630468225881 
-0.02611252029494882 
0.008213279528407162 
0 
-0.01058185451376632 
0.02938012494933387 
-0.01855793717103083 
0.02024548175656205 
0.09037852014076811 
0.01032528655622235 
-0.0004795224430847873 
0.01398842829217867 
-0.003539284062919103 
0.009100338746185174 
0.007557141662204123 
-0.004835254485376174 
0.01391979000729200 
-0.003437559149954308 
0.06789985089395792 
0 
0.09011502940333142 
0.02089409728201272 
0 
-0.03029126962679000 
0.01925930863118068 
-0.004678962542821291 
0.02413072820350939 
0 
0 
0.01629520454017769 
0.005232569468251143 
0.009414922796818414 
0 
0.1542588316738017 
-0.001208600678081489 
-0.03289666696414265 
-0.01205960449896023 
0 
-0.08898450096804218 
-0.04812500149101707 
-0.004941253849688711 
0 
-0.005874384917483522 
-0.003156373209858903 
0.01266414433542629 
0.01274705075188506 
-0.02316321229622480 
-0.01665604498621855 
0.02266658887457047 
0.01937405108190913 
0 
0.005264742055621120 
0.01112091144338253 
-0.02317959188049855 
0 
-0.007181936328809751 
0.009717214165854717 
0.001684890576431267 
0.01339130782104976 
-0.03883826726108766 
0.01703989250262767 
-0.007873763005068143 
0.008000126006378990 
0.01299504789925827 
-0.0003647902847870158 
-0.03403176438065783 
-0.02356303510007394 
0.1363943395368381 
0 
-0.03286104625624848 
-0.01670842910167452 
0.001342122778530715 
-0.01909076513007799 
0.01135154193921907 
0.01701117239190521 
0 
-0.001498494178035523 
-0.02021613980773893 
0.02722209145113807 
0.02871343575673078 
0.01760287475999465 
0.02414525692511678 
0.0007271870397857494 
0.02580907903161026 
0.01648711248728853 
0.01497025379943551 
0.04363980301517279 
0.08250909239612685 
-0.001231381628820469 
-0.007774353157429395 
0.03493124783747131 
0.01161347202490837 
-0.05393400072760815 
0.008489546152136684 
0.1213310529042952 
0.007243300856793029 
0.01522133981485559 
-0.0005678963474260101 
-0.01094359126435163 
0.003501734187963426 
-0.009017700117917103 
-0.008377126405810112 
0.001630758592889379 
0.01806636449444244 
-0.0004748414648679819 
0.001684890576431267 
0.1160200729483552 
-0.001553298156226146 
-0.007225308359485209 
-0.005747225889086676 
0.003881291758649033 
-0.05245753776924448 
0.001215010248857042 
0.06557378687543600 
0.02295865652602485 
0.04019106972728913 
-0.01412034781781908 
-0.005632524761075073 
-0.01060758858112125 
0.02239368933438495 
0.02816718843485619 
0.01398842829217867 
-0.003624330097751427 
0.004579855877130685 
-0.05403929483504228 
0.01954187354627372 
-0.02347968593879468 
-0.01644565282314374 
-0.006794384021641411 
0.002709286836197326 
0.008655773019475739 
-0.02190990214661574 
-0.02534781775782885 
-0.01590878089349769 
0.003902256872644084 
0.01246731447756830 
-0.01492387905185657 
0.01153968509552984 
-0.1900222566197560 
-0.1668217862992022 
-0.08737659410038867 
0.01938641739219535 
-0.04932274448666661 
0.007983147082514025 
-0.05606436984256630 
0 
0.1019657672224096 
0.001472607947189866 
0.001456447315837779 
0.02376382179442749 
0.02037328602356737 
0.02682958819259169 
0.01261647182490188 
0.01261647182490188 
-0.02601111593109891 
0.01860895873605705 
-0.02453216839525762 
0.01748293641785971 
-0.1881335221825447 
0.2240322488484388 
0.003041000283305144 
0.02178168094009088 
-0.001521397814451210 
-0.04994593553260558 
-0.005916793518724837 
0.01339960150541945 
-0.004263912312305959 
0.01506525278846672 
-0.02901102588371539 
0.008236294418997100 
0.01339960150541945 
0.01419501049725429 
0.02906593824219080 
0.01762195678658196 
-0.06524717137896753 
-0.01106683703089205 
0.01244726590418851 
0.01506525278846672 
0 
0.006439952419409525 
0.01266414433542629 
-0.08968946433744064 
-0.002975866621498229 
-0.002411233031191346 
-0.0003647902847870158 
-0.003528813520216528 
0.01090838357575270 
0 
0.006486369623460926 
-0.009972544354547420 
-0.009214392374617332 
-0.009972544354547420 
0.007077324798700861 
0.0006799649776771409 
-0.008576317961542849 
0.06900596558046367 
0.009233913884519976 
-0.008576317961542849 
-0.001750605003190571 
0.002083775366090853 
-0.06137253130760481 
-0.007031575149395694 
-0.01180529783736600 
0.008321837364249720 
0.005639765092409793 
-0.001493254618447412 
0.009097966844815238 
-0.03679730159934542 
0.003286626921501581 
-0.05496044488563717 
-0.01312481496593236 
0.01772570327557123 
-0.1137669900302210 
-0.03531144914953373 
0 
-0.02550231089661069 
-0.04369868621007023 
-0.009017588334205679 
-0.08956936251358052 
0.04172477798900031 
0.003209321682074888 
0.03907853383592111 
-0.02986956114067523 
-0.01972128155590979 
-0.04858848062054678 
0 
0.009001602449340240 
0 
0.1425973862309899 
-0.03021558083363239 
0 
-0.07904554099795700 
0.01257330753326258 
-0.04206806502617240 
0.01126694187397048 
-0.003227358769283161 
-0.02885583725871604 
0.01040289286901697 
-0.003478371876297960 
0 
-0.01427372777587269 
-0.06411395672638820 
-0.01774573322845977 
0.004723440681930006 
0.03219308885674682 
0.002985331940833208 
-0.01340094546455798 
-0.0009230743537657312 
-0.03620703612004215 
-0.01237103305160060 
0.01709823312172470 
-0.01240556017535420 
-0.006605662714422830 
0.001659375752584414 
-0.04552765289035328 
-0.03432279072794192 
0.02435821931582774 
-0.01029462851684032 
0 
-0.01702162092745165 
-0.01843395367031137 
-0.1279543177630164 
-0.009881787124079540 
-0.002115743516858819 
0.01982740423017627 
0.002267212544538386 
0.005738201185702162 
0.01819027630506324 
-0.004985003692448859 
0.005347579964871789 
0.01458633210642824 
0.002709286836197326 
0 
0.02026302407358128 
0.01027994244839580 
0.02617041169965579 
0.001916704716319937 
-0.004002426705184225 
0.006477267178994306 
-0.01312481496593236 
-0.004002426705184225 
-0.01198087891644937 
-0.02404303468474466 
-0.02501546712574874 
-0.02932727300809712 
0 
-0.1122294117310791 
-0.0006343140198532460 
-0.001637259125984071 
-0.01491645293744908 
-0.01237103305160060 
-0.05420560102674309 
-0.01478143681631313 
-0.05465212402806517 
-0.05740149167901135 
-0.1000859609766473 
-0.02515856504835864 
-0.003945579044030561 
-0.1710691224519629 
0.02572736275035844 
0.01828692688162098 
0 
-0.004921611557888884 
0.005700326947210744 
0.01689069927269229 
-0.002152526839687901 
0.01688963602049442 
-0.02346649206534524 
0.02254088875216238 
-0.01492387905185657 
0 
-0.03682363808170992 
0.0001714461163199643 
-0.006067148367727163 
0.01635985616589371 
-0.01860783728518746 
0.004603745888732786 
0.007141718167512895 
0.03056795644589395 
0.006044695179143788 
0.03466315835546355 
0.03098892068540834 
0.004534942596784929 
-0.01106683703089205 
-0.02273274607006552 
-0.04793546265569868 
-0.007828825483477546 
0.01555952800169429 
0.002410700007929811 
0.01431415545844533 
-0.02974210992074384 
0 
0.04618677982041782 
0.03235992718101008 
-0.009174817425273759 
0.03378863033409901 
0.01728638547494515 
-0.02525765006969237 
-0.02707817363292617 
-0.01683463289057465 
-0.007619552850609443 
0.006422126067158225 
0.004470654511923568 
0.001561301837543397 
-0.2282293978316859 
-0.02368959924921418 
0.001561301837543397 
-0.005286706513326749 
0.01011030511227288 
0.008239381419246380 
0.02871504612927024 
0.01035263646461563 
-0.002860114043621587 
-0.001755665057704989 
0.009849782146378362 
0.01527722423254923 
0.07285666095117208 
0.01441588203650206 
-0.02589463243254325 
-0.01787516074235817 
-0.04800660990624459 
0.03405620106767774 
0.04197963709171981 
-0.05925503163612032 
0.03102126284773609 
-0.007778689901944315 
0.01051731832128803 
0.009569421832017240 
-0.008589472813783002 
-0.02922941484882580 
-0.008523609356776202 
-0.04272366278550614 
-0.01472719683049940 
0.003682646861288523 
-0.01062259863713101 
0 
-0.01913562845331010 
0.02669818430691937 
-0.01763019387964219 
-0.04102775671688235 
0.05908622954174300 
0.01937405108190913 
0.002705026440728245 
-0.06678193121384945 
0.05314898968737622 
0.01979952638465992 
0.002278477424037174 
0.02087193528307671 
0.008568310332606388 
0 
0.01526457201114938 
-0.009850192910277677 
-0.009850192910277677 
-0.0001084987087019396 
-0.01038933660159064 
0 
0.02622035803284453 
0 
0.03762850531883712 
0.04698974398514039 
0.008435784102800917 
-0.007033084953241941 
0.02466875356576373 
0.01982740423017627 
0.01499781307401486 
-0.04617406997728145 
-0.02331968148431317 
-0.01036480158798358 
-0.007063852059933475 
0.02192576785808078 
0 
0.01654266797503767 
0.02691331137105104 
-0.001345897579176709 
-0.01251754842653224 
0.01510080640203100 
-0.02350432606152262 
0.01941473973431956 
-0.009854395534291235 
0.01201573720755161 
0 
0.01585654879522790 
-0.002276298514529812 
0.02957801117654522 
0.01329919534945334 
0 
-0.01285924171071402 
0.03254576526665337 
0.001204554949917004 
0.002966275804462584 
-0.0005219026470673986 
0.003620291584273253 
-0.005223488323433329 
0.0002848973437400433 
-0.005904347161756586 
0.009233913884519976 
0.004052207555546390 
-0.01312622553717790 
-0.06416399918540466 
0.1339944522035498 
-0.01444747042331974 
-0.03083864061637226 
-0.01065480763668196 
-0.01249076544968577 
-0.4482020858956951 
0.02496575578067311 
0.002468477320842108 
0.02371751446738284 
-0.006155643822016874 
-0.001377042243612887 
-0.007853668834004008 
0.02266658887457047 
-0.1566287310504634 
0.01677320379583528 
0.04062965145213463 
0.007481478626956842 
-0.04368095156074658 
-0.01468863794243649 
-0.01183626412353075 
-0.04881544404612891 
0 
-0.02375353642667409 
0.01032137525518785 
0.03991933859277087 
0.01509692225845414 
0.03213265839874489 
-0.01326278717376957 
0 
0.008626005972126665 
0.2542162593984654 
-0.003710087592895843 
0.007342386184121314 
0.001240978900738202 
0.01307906807407841 
0.02199766499956414 
0.06064643850171556 
-0.1882319207738311 
-0.002099091792369823 
0 
0.02728584745965111 
0.007383013016475947 
-0.004866921223419436 
0.07996158080286811 
0.001050320350438813 
-0.007838041339560717 
-0.009965996369582140 
-0.0004472122069616770 
0.006410881779291906 
-0.004073672615083233 
-0.0009439538692004642 
0.01835462692450854 
0 
0.01135154193921907 
0.004668768308026374 
-0.04263675372948694 
-0.01703319817372249 
0.005633234338732825 
-0.01322873560800615 
0.0002284489839884856 
-0.003180902019230300 
-0.009516849420034005 
-0.05606681095721913 
-0.05649086270892750 
0 
-0.01004224366260680 
-0.09001823934436630 
0.08304628069811838 
-0.02675677302079491 
-0.005048646116082212 
-0.002538980149208500 
0.01672166933866802 
0.02666601983156519 
0.03996212322007009 
0.003214235657470764 
-0.0006094800425976037 
-0.04465870777094982 
-0.02580154350671175 
0.01078398081624637 
0.01159003479308418 
0.002091396684839130 
-0.02473340076055249 
0.008231952788493039 
0 
0.01954187354627372 
0 
0.01571685648668735 
-0.01173177111077136 
0.004980232467798500 
-0.002338702422231435 
-0.05957694637290319 
0.04582481499321191 
0 
0.003512296891219545 
0.07493663836726003 
-0.001631393413096013 
0.03549450814796808 
0.01790639105825290 
0.0006353192704503016 
0.03249665564324609 
-0.01604361025697282 
0.001139339076543280 
0.005347233905786667 
-5.293374459817285e-07 
0 
0.02089409728201272 
-0.009703552529681357 
-0.02001745514507036 
-0.01200407042243819 
-0.03778875809369754 
-0.04544577448868786 
0.006696186256490003 
0.03887985897389443 
0.01299504789925827 
0 
0.004229114733456242 
0.007511747587799579 
-5.293374459817285e-07 
0.001752986743780707 
0 
0.06353856753032847 
-0.1503451200659444 
0.001670589038036282 
-0.009026919770738785 
-0.05760806074809177 
0.01346345690018821 
0.009232994063587270 
0.02787381949582229 
-0.005003714081301579 
-0.004162203239982598 
-0.01838787309306523 
-0.009206677627040598 
0.01137030175788592 
-0.01029462851684032 
0.07822047299135970 
0.0009792615666904035 
0 
0.01027994244839580 
-0.1345824542046777 
0.02038362220588517 
0.003828476347162789 
0.02816143852595165 
0.002347738375370335 
-0.05014861911198533 
0 
-0.01748501796614443 
0.01969535487009632 
-0.03012506597507015 
-0.003156373209858903 
-0.004798146937911732 
-0.01493308717275917 
-0.0005935164185546511 
0.03002789443427916 
-0.04102775671688235 
-0.01589395811623180 
-0.009423032327580011 
0 
0.02791996937531018 
0.1154223621250920 
0.003392986735259704 
-0.007870221645843603 
0.04555385168388178 
0.006056430205252168 
0.005507829095797948 
0.01657004763557171 
0.04147227861186376 
-0.02331968148431317 
0.0002648153036189397 
-0.02814511387096301 
-0.02814511387096301 
0.02564675982193484 
0 
-0.01856982523974663 
-0.06701604664550200 
0.004244057847022394 
0.004655979333046954 
-0.002474324946867821 
-0.04389749806301169 
-0.004785094501637189 
0.01001023622345506 
0.005004345077572178 
-0.02550018794818938 
-0.002620795585036825 
0.002131860664037715 
-0.04036214233856252 
0.01658862826274442 
0 
0.02251895494319629 
0.01038677012708092 
0.002131666679494019 
0.02231155186054331 
-0.01621764243878256 
0.01938361932193839 
-0.002275751798940595 
-0.01114089080013051 
0.03959995958129574 
-0.007873763005068143 
0.01135154193921907 
-0.1337476277844145 
0.07950226138407883 
0.02686390655255922 
-0.01057572849250163 
0 
0 
-0.001005648480626754 
-0.04013978840530245 
0.01543183085951368 
0.03611383026778559 
0.02381811377780337 
-0.01999039389782482 
-0.08477311869963812 
-0.07027460487472198 
0.01686951354126282 
-0.04458711832912968 
-0.01039288851714459 
0.009025389517077945 
-0.02837147045265544 
-0.02441783823839264 
0 
0.02379780756855062 
-0.02664360879437389 
-0.04696840302605547 
0.02387906914366086 
-0.007045148384415273 
0.01760287475999465 
-0.004384193859551262 
-0.04086382499651974 
-0.01926823145028482 
-0.007778153373062004 
0.009233913884519976 
0.0002402938501371440 
0 
0 
0 
-0.005665161140753997 
-0.001555833781073879 
0.006476268525897810 
0.01339960150541945 
0.03930605587731226 
0.01498345159461105 
-0.01552093808217614 
0.02596376525711340 
-0.02640470107497237 
-0.006882265618637890 
-0.01010150107694726 
0.009271666230149710 
0.0009164836030445850 
0.01416087607318465 
0.03298261388112032 
0 
-0.002929654854934145 
0.005971016617332575 
0 
0 
-0.05006617470878734 
-0.02932018932164484 
-0.01855793717103083 
0.01618943388835909 
0.04797200678490368 
-0.02277453941322395 
0.1135675922397039 
0.01526243544992546 
0.01842464157304233 
-0.007565742026586232 
-0.0009060249678250233 
0.1534492083274770 
-0.004937700778062439 
0.01763902082908965 
0.002452715195579168 
-0.01590878089349769 
0.01761078330495848 
0.04883111472089659 
-0.02421899004876277 
-5.161111360516761e-05 
0.2708799360979216 
0.008137903516582713 
0.002962318101457257 
0.0006983003155569068 
0.009183633974633412 
0 
-0.01374839972212992 
0.001737234677719034 
0.009448497582939938 
-0.002209855476577047 
0.02657448353551484 
0.009589667088297095 
0.005280100755597780 
-0.02213264813364044 
0 
-0.003974923012041107 
0.01750500180596650 
0.01705848990358361 
0.005988399320425126 
-0.1392045634171474 
-0.01549326039603475 
-0.01558893777236280 
0.001360074310122697 
0.01365824894899522 
0.004279574909059509 
0.03550135545834755 
0.06870293171476513 
-0.003606083956131171 
-0.002538980149208500 
0.001143119784662119 
-0.003800223698637321 
0.01508759234838697 
-0.001595587798491923 
0.01084524650350928 
0.008084619144445256 
-0.007122022787767567 
-0.01877280715578486 
0 
0.006506060481766156 
-0.01519174579431216 
0.01171145166791839 
-0.006630818381073512 
-0.007048589998305592 
-0.005412060087544232 
-0.0009439538692004642 
0.009791458849312446 
-0.006734068906756688 
0.04369846434167269 
-0.04669738290687996 
0.0007395704017551987 
-0.0008517278323890026 
0.001644707878987075 
-0.007492312366487399 
0 
-0.02328699613278597 
-0.05539812424261459 
-0.05880199977644570 
0.007402963371713782 
0.003671600393539167 
0.005583262907632408 
-0.002514245298524304 
0.02080472894214698 
-0.007941368988891391 
0.002101439966213202 
0 
0.005087027114999729 
-0.003713529683788332 
-0.004002426705184225 
-0.03202875871603753 
0.01734313884340409 
0.0009926817169057360 
0.02551077021078578 
-0.01703213255469002 
0.007167052796607371 
-0.01118753945596440 
0.002733115724248817 
0.001456447315837779 
0.04423776828727035 
-0.002675433697816806 
-0.006117231159717221 
0.03239352194732209 
0.007572013507997097 
0.002898528047214269 
0.06988770586005076 
0.01329919534945334 
0 
0.02101740438441898 
0.01378751721326635 
-0.01165575707054645 
0.01488673438399732 
0.005812918457244447 
0.005364715755195154 
0.001827717382711141 
0.003995607112023769 
0.003864066475698387 
0.002168451110943703 
-0.09011078535734243 
0.02084495685949624 
0.01910784293675852 
-0.02771918215792789 
-0.02729369608227497 
-0.02862182219254904 
0.002643088667999581 
0.003138839695407869 
-0.01926823145028482 
-0.007203120655020527 
-0.003459831308879792 
0.06025871320898302 
-0.01558893777236280 
-0.01099224064487141 
0.02241179818221909 
0.005750517960478518 
-0.02131634623934911 
0 
0.004464278156753151 
-0.0007640498702074358 
-0.01019475324041197 
-0.02018857407917972 
-0.03062567914466092 
0.007557141662204123 
0 
-0.0009439538692004642 
-0.007433754954348312 
0.006752919989053377 
-0.001487373763605587 
0.004431087960052103 
0 
-0.01031873398141218 
-0.03596573917420366 
0.02222036621041556 
0 
-0.03000152045735232 
0.01366138116157381 
0.007740592797102026 
0.01749682710835783 
1.963499588468086e-05 
-0.01197109597066282 
0.004279574909059509 
-0.01297849417711409 
-0.009878559986433035 
-0.04523237239820376 
0.007407825213787517 
-0.02348026634404154 
0.01541188739998648 
-0.002455647736369717 
-0.01785185914197764 
0.01757169781805970 
-0.003250006142777795 
0.1812343720801615 
-0.01293358668780427 
-0.002538980149208500 
0.0006439400965667806 
0.01506525278846672 
0.006372165452696772 
0.08743944629177056 
0 
0.04229964013626739 
0.01884630259224101 
0.0005559469918178577 
0.02753751784298817 
0 
0.01021556863480955 
0.01851610142888455 
-0.07339911940138902 
0.01495790781359318 
0 
-0.04106395714529956 
0.001294460824398298 
0.007167835570560236 
-0.01244609330265152 
0.02073245387336709 
-0.009245450513720603 
-0.02716558031715194 
0.002267212544538386 
0.007792253799355582 
0.02572309643451787 
-0.003130801344339346 
-0.005407655735332289 
-0.02948594113891582 
-0.01558277076683285 
0.0008967233184808257 
0.0003520250545249566 
-0.01411125322230736 
0.02966626216920887 
0.01021556863480955 
0.004691012985121664 
-0.02174706430776551 
0.001869354898707566 
0.004258564810583186 
0.01268507358223546 
-0.01007943415718147 
-0.02013351552084422 
0.002330002912889300 
0.008122167474556824 
-0.03203080288767458 
0 
0.01578238091350074 
-0.01906223077699842 
0.01371902601207968 
0.001241662181190792 
0 
0.04577032085380824 
-0.03202875871603753 
0 
0.03358475616943336 
0.01046100751169278 
0.005613024296645842 
0.02755057824564745 
0.001265804616771480 
-0.009411827430422600 
-0.05595476314002190 
-0.03789358547062307 
-0.07941700957681544 
-0.02177142403619712 
0.002725893764891994 
-0.04927420916215776 
-0.01007368976591665 
0 
-0.03209580061881341 
-0.03116559982956887 
0.04929856630683727 
-0.003725818439853270 
0.0007570477935548553 
0.007208404938401377 
-0.01414778805061016 
0.006366458008765739 
-0.007469155807848899 
0 
0 
0.08127787868769427 
0 
0.005898883342799267 
-0.04102775671688235 
-0.007269359209302845 
-0.06849697479928527 
-0.02368959924921418 
0.001827717382711141 
0.01887862557452877 
-0.008666596496522311 
-0.01794999944705213 
0.02432502571940117 
0.01125689783880551 
0.002083775366090853 
-0.006015525888588615 
-0.02140581397551431 
-0.003126816178397532 
-0.1114256444028091 
0.01357148356872344 
0.01783413794623827 
-0.01033147687207445 
0.01764339106259908 
0.0003984536765939474 
-0.04166409147385472 
-0.01034769630535186 
0.01954187354627372 
-0.02394637576309314 
0 
0.01526243544992546 
0.007787021733035071 
-0.008409500969923140 
-0.0009759101488398172 
0.03601410325159546 
0.01078398081624637 
0.0007933215185043246 
0.002916937984547415 
-0.003034490178318188 
6.220370299349744e-05 
0 
0 
-0.004073672615083233 
0.002233235603488144 
-0.02837047745506021 
-0.01657447789445894 
0.05168240442667930 
0.03884942638007836 
0.005971016617332575 
-0.0005678963474260101 
-0.01185332824209747 
-0.02448302175785419 
-0.007873763005068143 
0.008398313092116848 
-0.02947372090797983 
-0.01681503809586935 
0.02183876232877643 
0.01508759234838697 
-0.01381667751513083 
0.002173851102859424 
-0.01633249128859135 
0.0002674642468952203 
0.01905469220971531 
0 
6.220370299349744e-05 
0.1475927858724151 
0.004554837130606232 
-0.01028436180999252 
0 
0.01472661008639594 
0.01918610501618859 
0.01856538081415289 
-0.01693310196423259 
-0.05885007785762638 
-0.01865409563106595 
-0.006794347545616292 
0.007162651466828112 
-0.01247351726401542 
0.001849183936158667 
-0.03905433601190246 
-0.01621764243878256 
-0.01334807359301604 
-0.004187683169962420 
0.008344844493779620 
-0.1038212727113982 
0.03336728002089287 
-0.006432828197663514 
-0.02695603467956335 
0.01812757442839794 
-0.06741314069243327 
-0.01279659958774254 
-0.01866532735315455 
0.05679420665056727 
0.001827717382711141 
0 
0.02037328602356737 
0.06869696228266070 
-0.01185332824209747 
0.0007933215185043246 
0.009697952532075990 
-0.01220172096124455 
0 
-0.04410821801748380 
0 
-0.03327170334594398 
-0.02148580481376657 
-0.02404303468474466 
0.002418870428008423 
-0.003624330097751427 
-0.005369361853045676 
0.001644707878987075 
0 
0.004741761710630566 
0.007511747587799579 
0.03346109220967818 
-0.1097030463237792 
0.05113444719549833 
0.03033910258811973 
0.003286626921501581 
-0.02643824419326234 
0.02143031940604934 
0.04589175921127193 
-0.02452711831226774 
-0.005236092713349500 
0 
-0.05252921460761760 
0 
-0.03023502291082033 
-0.04984863381508341 
-0.02087863802497088 
-0.01337773124732884 
0.02693316803482798 
0 
0.01509988911708469 
-0.05488751379398470 
0.002862036615613300 
-0.01296040570485586 
0 
-0.03053756133791567 
-0.01144242289542959 
0 
-0.01143244916402600 
0.002214346097295699 
-0.01400558288883182 
0.0008921112875203028 
0 
-0.03202875871603753 
0.002735142704129711 
-0.01195374719548159 
-0.001637259125984071 
-0.02071904473795215 
0.009107177227574571 
0.01721847097416868 
0.0009763062742733117 
-0.03567464400526001 
-0.01315184454691450 
-0.01315184454691450 
0.004492568282548395 
0 
0.01366382757457220 
0 
-0.01309033397923650 
0.01737652229911955 
-0.04055320297462649 
-0.01551889994559687 
-0.003156373209858903 
0.04019106972728913 
0 
-0.02645279492298616 
-0.0003189477684190124 
0.005110840684826461 
-0.002929654854934145 
0.02806599192840438 
-0.02463052953638502 
0.01014833438032393 
0.01922534186713245 
0 
-0.001168788644541900 
-0.01558893777236280 
0 
0.09354846219462692 
-0.002807543592795067 
0.08272872827836180 
0 
0.06109602629678373 
-0.01148083780393313 
0.2115033108778730 
-0.0006501748523819286 
-0.002249868510729240 
-0.01831030788615363 
0.02526099069107738 
0.006248500425039332 
-0.03177915020602831 
0.5387999587871789 
0 
0.001786399480551674 
-0.03393178724638381 
-0.006095425317501237 
0.01550600285865044 
-0.02163787570091423 
-0.01463687750774725 
-0.03114159442112069 
-0.01369505327884381 
-0.03122728052764938 
0 
0.01002529193075940 
0.009457667006616897 
0.004888134024683548 
0.005948923672901451 
0.004473006286601829 
0.002267212544538386 
0.03423797685772009 
-0.007122022787767567 
-0.03620113110410893 
5.237924834239002e-05 
0.02153329270676410 
-0.008480689969159037 
0.03431955758295398 
0 
-0.01737060017595821 
0.003512296891219545 
-0.01541581879066122 
0.03162651519039327 
0.001465665448912976 
-0.01011013485889950 
-0.01253981634709492 
-0.3709816980206691 
0.1017869759141365 
0.1212493475287401 
0.006922697377591545 
-0.01601006422039348 
0.04622274958140615 
0 
-0.02452477258373612 
0.03672841377242839 
-0.004722451439085678 
0.01925877558947606 
0.2317761725914654 
-0.01296040570485586 
-0.004228360232625370 
-0.001008080370194116 
-0.007778689901944315 
0.02023437937180852 
0.04788003375218706 
-0.006240538262123479 
0.01190849588636887 
-0.1469991886281044 
-0.0006025215188437565 
0.03170845230214411 
0.002243332378123083 
0.02774799510324610 
0.03960691400886494 
-0.01106726799636074 
0.01551746223365598 
0.01384582027201184 
3.587902029534250e-05 
-0.03722894830459565 
-0.001624976326404330 
0.04403170071141603 
0.02485419571207442 
-0.001772736578263148 
-0.006011913760563533 
-0.006532633494976435 
-0.01079915992257898 
-0.0008210782014260588 
0.01140542883422212 
0.01029349125154746 
-0.01125181881733800 
-0.01261987540885421 
-0.008883079412956438 
0.02188533444078308 
0.01700546791432711 
0.005119408896843705 
-0.0004748414648679819 
0.0009674396697086224 
-0.03907548501743664 
-0.01878195257641208 
-0.01920879063844805 
0.03679734832229228 
0.01180807360604017 
-0.008394947658068780 
0.003176599629568322 
0 
-0.008988708303344544 
0.02467241528393467 
-0.02376862883907712 
0.01097180356597620 
-0.006367335971021463 
0.003173655874790385 
0.02384601106495807 
-0.0002045211396357362 
0.01968801109395785 
0.08086096392104955 
-0.01032527494099383 
0.008278739226363439 
0.004783765691925750 
-0.007152564716721107 
-0.03308314562187600 
0 
0.09254787245710194 
-0.005262671863260663 
0.01461078222842808 
-0.04506445359390199 
0.01860565738399304 
-0.01011882620282368 
0.004186638774097407 
-0.001377042243612887 
-0.1540888583423798 
-0.08827963115568507 
0 
0.01664636295863644 
-0.05058669588706836 
-0.04465870777094982 
-0.02331968148431317 
-0.01107020719153579 
-0.003055443741355404 
0.0007568912041656275 
0.03555254170656142 
0.01506525278846672 
-0.02302280958509062 
-0.002626968567727332 
-0.01412034781781908 
-0.006095425317501237 
0.04689604933543014 
0.01223930166205462 
-0.01749136277101669 
0 
0.01819027630506324 
-0.002929654854934145 
-0.01616915510683612 
0.0004493761851096562 
0.1067870311995161 
-0.01023861206224920 
-0.01397958186250976 
0.01344956791953351 
0 
0.04274482647632105 
-0.002275751798940595 
0 
-0.01020908073681915 
-0.04024635098716269 
0.01613386317990737 
-8.714587452176919e-05 
-0.006220655436050904 
0.01327307998835197 
-0.01315884481282104 
0.004603745888732786 
0 
-0.01898871077165729 
0.03358223400897378 
-0.05319950814544189 
-0.01473679554758966 
0 
0 
0.01050278157240258 
0 
-0.02225064985720189 
-0.04713498491035162 
-0.008121541491771321 
0.02040915772113962 
0.01408826871185573 
-0.02320770797457590 
0.006086518623351541 
-0.006246138791490813 
-0.008236428288543360 
0 
-0.01394894678501837 
0.004196732949581908 
-0.005769759572499219 
-0.01117196337599340 
-0.02011664353221439 
0.005043194727326906 
0.003157195999791780 
-0.002015546128494508 
0.002683100318447204 
-0.06860139251924710 
0.04367761469662766 
-0.004729842499110059 
0 
6.220370299349744e-05 
-0.02130544909314125 
0.01002529193075940 
0.02010679930392623 
-0.01821078584270381 
0.007817227648989298 
-0.02359280365007119 
0.0002009921253928501 
0.001653014951924543 
0.03295171871056334 
-0.01463100503127905 
0 
-0.01088509673041552 
0.02939824966499776 
-0.006882265618637890 
0 
0.01947607089650616 
0.03019825871582717 
-0.006023108330184785 
-0.009870457481496231 
-0.02071904473795215 
0 
0.008288065255178785 
0.01313986852316997 
-0.002662111826174781 
-0.04749216388407842 
-0.01366646446750616 
-0.004680240741831565 
0.002301282964196045 
0.004113654793706758 
0 
-0.06608613124285034 
0.008713768694003553 
-0.009981194390484376 
0.005150805975686321 
0.02354826103769486 
0.01453215210049278 
-0.001724222961349704 
0.06341542167036414 
0.04934231223232978 
0.05717562496978142 
-0.008207027197017902 
-0.0006016669682869192 
0 
0.007462466848436116 
0.007817227648989298 
-0.03193398195375818 
0.007817227648989298 
-0.1487470383452915 
-0.008223714320328744 
0 
-0.04984863381508341 
0.008046288037591892 
0.03647380484167015 
0.02381811377780337 
0.01243510348699093 
0.02691573980217735 
-0.01703319817372249 
0.2048271631435581 
-0.03097377153860879 
0.01677149882227417 
-0.03173232823365090 
-0.07775108473537398 
0.002392008305271842 
-0.003504063013373417 
-0.01784192506907880 
0.06035933032715418 
-0.01585303634960502 
0.1133907649158649 
-0.06348604137787496 
-0.005631933762823673 
-0.02264434349947993 
-0.01948574552093807 
-0.01830488003770353 
-0.003181420737157620 
0.007393522324246126 
0.01448387767264193 
0.01253261628900252 
-0.01169486377583446 
-0.01847265684817778 
-0.0002727255792276880 
-0.2152000512961520 
-0.01840298623545281 
-0.004312358558377357 
0.02026302407358128 
-0.01234071716833423 
-0.0005010848033169695 
-0.01114089080013051 
-0.01397260641961473 
0.008412151486147178 
0.03978372912698664 
0.02940857156468289 
-0.02968434628193857 
0.003075905259357047 
0 
6.220370299349744e-05 
-0.001192667945292827 
-0.002564971668316890 
-0.006272734087571205 
-0.04777131666982038 
-0.01168521898539017 
0.01506525278846672 
-0.01251816090088927 
0.03984802862294092 
-0.02158074503346419 
0.01118995596732254 
-0.04393314678716920 
0.04758509269214917 
0 
-0.01146125801896942 
-0.03203464493575670 
0 
-0.01971904143958735 
-0.008450187834272297 
-0.007968232320093516 
-0.07492257731629755 
0 
0.009457667006616897 
0.0006764992167606356 
-0.05473315200627414 
0.04760584784328749 
0.02844150934447461 
0.01648711248728853 
-0.04190747112045398 
-0.003180902019230300 
-0.009662345084438384 
0.01320392054411724 
0.004229114733456242 
-0.01471719846049058 
0.002124901918001672 
-0.007269359209302845 
0.02717543114840609 
0.01665481024896006 
-0.02548267682514641 
0.005988201051703574 
0.02597515178733129 
0.02084504139124581 
-0.0009675331806625750 
0.008137903516582713 
0.1732878246519443 
-0.005132542369789181 
-0.02336307740570657 
0.009271666230149710 
0.02295825755278820 
-0.002673539591457993 
-0.03253693600482253 
0 
0.001348862774404919 
-0.006147036431106405 
-0.006269402012666113 
0 
0.04289105673708171 
0.1826589540696342 
0.006058038378313631 
0 
0.001889411633997156 
0.007782305394663258 
0.03836607856474092 
-0.01295237426619036 
-0.05845581197564075 
-0.002014730632750835 
-0.04596957818141853 
-0.04373762904479725 
-0.004933559459638083 
-0.3677071631272136 
-0.1007612417718094 
-0.01816203697547359 
0.0004417736782324428 
-0.01198721755606529 
-0.007608645906005835 
0.002129471550118852 
-0.009820384998692380 
0.02430441848591568 
-0.03719150223151926 
-0.07701375465789657 
0 
-0.009977199491602678 
0.01174166850852042 
0 
0.005135870714731041 
-0.006272734087571205 
0 
-0.02280533445029194 
-0.07939484548226627 
-0.001231381628820469 
0 
-0.01590878089349769 
-0.02272798062449226 
-0.06432229426910657 
0.01090838357575270 
-0.05244030729235952 
-0.002620795585036825 
0.04487091294947961 
0.01754670838223822 
0.006365316994171133 
0.01292154451514703 
-0.004494037204227757 
0.004196732949581908 
-0.008234740812289870 
0 
0.005043194727326906 
0 
-0.01773679850047600 
-0.01011151111811703 
0.01046269509397397 
-0.0008517278323890026 
-0.006006724945312387 
0.04383009985025754 
-0.04573699938018002 
-0.001191108809801387 
-0.02025533674523670 
-0.01886457751542947 
0.01967048114043222 
0 
-0.002223961212473653 
-0.06971736298830758 
0 
0.005249339726067283 
0 
-0.006721045314460069 
0.005531937677875303 
0.02548988437067339 
-0.005127174916393600 
0.003831883058268450 
-0.02357895286419630 
0.005578645243432703 
0.1183765330873642 
-0.02543363782516814 
0.005887642901555473 
0 
-0.002884203662144497 
0.02151989464948019 
-0.009281325849257272 
-0.01294488674778878 
0.06002529250921394 
-0.005539380218441432 
-0.03393383568045547 
0.02646288325177791 
0.0004965361617361957 
0.006836744252683658 
0.04458466134507276 
-0.02937396914054462 
-0.009336220074878518 
-0.009336220074878518 
0 
0.03854682419156358 
0.01610101647557543 
-0.0009015616178876429 
-0.01248916535507202 
0 
0.004222553940371522 
0.03289342175810626 
0 
-0.09511459493506481 
-0.002373953622105299 
0.01749682710835783 
-0.01774306857970172 
0.01861684399682859 
0.01591041674015368 
0.01712690019918703 
0.2291615208932358 
-0.003913443633681769 
-0.007778689901944315 
-0.004104265581185939 
-0.04154170536306975 
0.02270114645981355 
0.009247431050537640 
0.0004873226652871709 
0 
0.05019600497384056 
0.002113539872392763 
-0.02191065828427136 
-0.01039211821445468 
0.01283184074063071 
0.0001841206971514684 
0 
0 
-0.01395584636412202 
-0.006333432090869738 
0 
0.004424285475980642 
-0.04425583780702241 
0.08671493127581872 
0.008071583863254520 
-0.009604617987940399 
-0.0009015616178876429 
0.01844898160926699 
0.01182081875498998 
-0.01898720940296614 
-0.01328688902800349 
0.01352662360522591 
0.04158379341928405 
-0.0007327871450038626 
-0.01512972939872259 
0.01218623840626401 
-0.01221084309134576 
-0.01890318881474423 
0.001444823317372869 
0.003067023144142962 
0.01304744112966039 
0.01069229163660999 
0.01920527641517179 
0.01968924429844457 
-0.02902505540720398 
-0.07146217604953110 
0.002922915106537396 
-0.06157396117230577 
-0.01653991771427878 
-0.001009316407888291 
-0.01144171653783719 
0.001264675890915809 
-0.0009060249678250233 
0.06229296953732625 
0.01860895873605705 
-0.07420808700787582 
-0.004303624325571707 
-0.003303484898406013 
0.03522790032595566 
-0.02440777369826688 
0.004513754910393381 
-0.005631933762823673 
0.0005774004981641987 
0.005051086489210667 
0.01364922082351627 
0.01712690019918703 
0.02110045006179920 
0 
0.06161208977969765 
0.0009895879167496702 
-0.01371179062565639 
0 
-0.03094609993451680 
0.008239381419246380 
0.0004993950570296743 
-0.02072076770408340 
0.05231563249089510 
0.01163480682984718 
-0.09474761234859941 
0.009212637454948066 
-0.009849794620794300 
-0.006224564744411094 
-0.002099091792369823 
0.04171119715626323 
0.01867190769438180 
-0.002852338710898245 
0.05259482905473705 
0.02177751739048732 
0.05786283692220438 
-0.03850572410715801 
0.01028006811413717 
0.01954187354627372 
-0.003566745897251674 
-0.001007432746114945 
-0.001519251158149210 
-0.01416456330873081 
-0.003156373209858903 
0.0006695172931389538 
-0.009995908862316666 
-0.03008639007614851 
0.01916540246512656 
0.01995273224183523 
-0.006927427083528266 
-0.006417512811185925 
0.04910593569324610 
-0.0003189477684190124 
-0.09731786936985107 
-0.01357905460055619 
-0.01472319037401237 
0.03536509830446833 
2.159536087193207e-05 
0.002756451537091152 
0 
-0.01425369714632706 
0 
0.05691723105277072 
-0.02407163955042975 
-0.1484885736861741 
0.02079643553419119 
0.004655979333046954 
-0.05274668641932860 
-0.09067128613827839 
-0.06227431154780870 
-0.01867844219332349 
0.002349268071894780 
0.009232994063587270 
-0.004909084860646913 
-0.02357572920157708 
-0.01047638648358696 
0.007332126595240693 
0.001865327797726708 
0.02266658887457047 
-0.006977475438261221 
-0.01512220478645069 
-0.009970718603409950 
-0.01749485581292957 
0.006476268525897810 
0.06150103735548299 
-0.009273500710415604 
0.04069820139637249 
-0.0009060249678250233 
0.02827564291271840 
0.01771493419773914 
-0.07379223069081683 
-0.01148479199286315 
0.01360292969101516 
-0.1221105321489524 
-0.01852203220850504 
-0.02350432606152262 
0.0009895879167496702 
-0.001968332825090556 
0 
0.009696510962476120 
-0.01757523455502498 
-0.001953817489312934 
-0.008066909556270565 
-0.01935599641082449 
-0.01079023941797610 
0.06689307825416747 
0.02448336007287162 
0.004052207555546390 
0 
-0.02764419487792468 
-0.07178702742796270 
0.003658281805416832 
0 
0 
-0.1016664705206122 
0 
0 
0.002267212544538386 
0.01508759234838697 
-0.006155643822016874 
0.01893750769513861 
0.004196732949581908 
0.06134417908671402 
-0.009176188162972120 
0.003020349781334473 
0.005790079080022242 
0.01443459765128506 
0.01938641739219535 
0 
0.04351472644449902 
0.02910823160443940 
-0.01780006569873084 
-0.002128609162223395 
0.1419432611203894 
0.002090389903085359 
-0.0008476837491825993 
0.007427394106944454 
0 
0.01175727271196722 
0.01313044896975337 
-0.002455647736369717 
-0.005314630468225881 
0.02428380044838495 
-0.0007517018039072624 
0.007760603567698455 
0.003682646861288523 
0.0002402938501371440 
-0.009633098123461097 
-0.01761789995178975 
-0.02106073414238085 
-0.0008040810522496537 
0.009625335451870184 
-5.293374459817285e-07 
-0.001192667945292827 
-0.0003189477684190124 
0.009334358229405048 
-0.09269303910107986 
0.01508759234838697 
-0.007857693507274449 
-0.008327002034178303 
0.07949520218407609 
0.008102521372776426 
0.0003984536765939474 
0.03870298373716045 
-0.02761955481181840 
-0.01424871266632869 
-0.009586860645479674 
-0.004053559351121302 
-0.01588023458125147 
0.009420958567911876 
-0.04792865991070371 
0.04674295673258349 
-0.04378772235234959 
0.02139005605076230 
-0.01103944941515335 
0.02512542984092055 
-0.01895724068702757 
-0.007565742026586232 
-0.01573851497227258 
0.06913927915446254 
-0.002209855476577047 
-0.02517694992388055 
-0.02350432606152262 
0 
-0.008121238333110000 
0 
-0.0007182749613962185 
-0.006189625376279463 
0.01352662360522591 
0.04318619103283164 
-0.01704742607476441 
-0.04004180084979538 
0 
-0.005170852913352807 
-0.01735545100715919 
-0.01735068080397956 
0.005965435154997981 
0.01161347202490837 
-0.008812175816972523 
-0.001056066898807719 
-0.007122022787767567 
-0.1138077650971442 
-0.002705847636224363 
-0.0008210782014260588 
-0.007026259635355264 
0.01282898071244177 
-0.03988171382627107 
-0.01984432040890300 
0.002688985901869302 
0.004888134024683548 
-0.01466929733300407 
-0.03546597683498872 
0.01369614537788273 
0.03331339359399212 
-0.1304366707326468 
0.01392177718744444 
0.003451137078385782 
0.04833929183717061 
0.01247135584581923 
-0.02834980742188794 
-0.07630317845128574 
0 
-0.03361946431051022 
0.04646606011779815 
-0.04014197897500030 
0.1209277413011340 
0.02866530626104184 
0.002371026871175497 
-0.02335255046940801 
0.008985964802057078 
0.007119928260465754 
-0.06539943763129615 
-0.04958827904851913 
-0.008207027197017902 
0.002173851102859424 
-3.507474665064708e-05 
-0.01407407592189059 
-0.0001456510753157633 
0.1215516402525380 
-0.03405434990814026 
0.01711559865342568 
-0.04820261834627031 
0.05056760871724657 
-0.001873113835549638 
-0.005500207407097826 
-0.01589370088464307 
0.01750759760236775 
0.01299504789925827 
-0.0008729437288119656 
0.02011504416682314 
0.01631071275034804 
0 
0.01529630849711607 
0.02099151960215957 
-0.009273500710415604 
-0.01272255680750953 
-0.01440130190154108 
-0.003825714496907645 
0.01266414433542629 
0.04178683222540700 
-0.007261757183870945 
0.0008275864131905043 
0.01819027630506324 
-0.1637771443877658 
0.01551746223365598 
0 
0.01030684896905672 
0.01388612582873685 
-0.01935848566207512 
0 
0.01108431698756638 
0.01749682710835783 
-0.005920094047362967 
0.01571586103297177 
-0.008234740812289870 
0.03174992974962022 
0 
-0.06583256718687139 
0 
0.05382339981737002 
-0.05941316263006170 
-0.03799068207245884 
0.03042751339942294 
0.05144428365603986 
0.0009138796503504083 
-0.02635133237076750 
-0.009850192910277677 
0.005535993663914767 
-0.2386581067813612 
0.03221600200152350 
0.001018053210499588 
-0.06840445232934915 
-0.04309959863173344 
-0.01964510515869114 
0.01398842829217867 
-0.006011913760563533 
-0.01964467274795717 
-0.02771918215792789 
0.004888134024683548 
0 
0.1253154946984466 
0.03482268692567475 
-0.01440130190154108 
-0.009225700776986513 
0.02596359980701340 
-0.003534080842860240 
-0.003464823691901495 
0.004737752317665189 
0.02723534895245769 
-0.03704560583026904 
-0.01384076069659105 
-0.02372168324872701 
-0.001966109520035050 
0.1263110681452060 
-0.04204031469973037 
0.07205748563467082 
-0.08281287543851476 
0.0007606473303054565 
0.008833022108845165 
-0.003436623806041686 
0.001294460824398298 
-0.02616567023152179 
0 
0 
-0.0008040810522496537 
0.02101576371303046 
-0.008019159659224409 
-0.02277057106106652 
-0.01270035615525838 
-0.009622531682203235 
0.05395470410692070 
0.002709286836197326 
-0.007047614580236720 
-0.02195905064251931 
-0.006564213874218277 
-0.01466572668156717 
-0.01106683703089205 
0 
0.001403092071343874 
0.01672758652195791 
6.020858446223638e-05 
0.01536198386385941 
0 
-0.008290497089724111 
0.005073480117332235 
0 
0 
0.008312322036583938 
0 
0 
0.04319376365885597 
-0.02062861186658567 
0.001659375752584414 
-0.008417928744367574 
0.01190849588636887 
0.009154334020591182 
-0.01323912441732405 
0.02177085462840414 
-0.02932727300809712 
0.01507492511927385 
-0.008842440333588875 
-0.007944871688093744 
-0.01847265684817778 
0 
0.1529335461242617 
-0.01487444375755415 
0 
0.01349179206387283 
-0.003907862498787953 
0.004534942596784929 
0 
0.01288245480985080 
-0.009806056113868722 
-0.06140983299337657 
-0.02824473986500421 
0 
0.01860895873605705 
0.04845821123681503 
0.03065759078263153 
-0.02965062019132056 
-0.01106683703089205 
0 
0.0004417736782324428 
-0.01287513002525802 
0.03411333530576728 
0.005790079080022242 
-0.05644853146601433 
-0.02339992246185079 
0.01349209488538118 
-0.01761069083219308 
-0.01913562845331010 
0.01304657614157798 
-0.002522779987466831 
0.001909821637339605 
-0.002049530293013160 
0.0004094773424811128 
-0.04836301393959948 
0 
0.002131860664037715 
-0.005211462562222825 
-0.07926991942748700 
0 
-0.07504585169240488 
-0.02767989442324281 
0.02230966311386410 
0.02266658887457047 
-0.005750867853923793 
-0.009849794620794300 
0.001369702203192384 
-0.3031437594021660 
0.01954187354627372 
0.008833022108845165 
0.01005267008380080 
0.001346573787723501 
-0.01898720940296614 
0.01603507586847076 
0.01730837632551081 
-0.01966206433070949 
-0.01984432040890300 
-0.01852203220850504 
0.007427394106944454 
-0.03327170334594398 
0.03456323684988651 
-0.01237103305160060 
-0.02655220250539193 
-0.008639261508187446 
-0.005586178627880419 
-0.004112204085075981 
-0.01485125587711272 
-0.01015579871550326 
-0.004723387772444046 
0.01451344724940995 
-0.01288490684293624 
0 
0.002966275804462584 
-0.0004692252798333318 
-0.009735796724955370 
-0.01087779157733651 
0.01843822864194510 
0 
0.002705026440728245 
0.02375713968442893 
0.1093694498142691 
-0.0002727255792276880 
-0.001202775931840441 
-0.01900771593888746 
0 
0.09236923323329264 
0.007501163895028981 
0.1057741121649018 
-0.01990018985013186 
-0.04094543131935917 
0.001596406113106591 
-0.03800403730151019 
0.005589121467784610 
-0.1406040113521217 
-0.01077599362187298 
-0.01272500423908454 
-0.01114772768448739 
0.01175727271196722 
0.008223178400741637 
0.001630758592889379 
0.02991257954026265 
0 
-0.01495448643645011 
0.04130242220955569 
-0.008121541491771321 
-0.01376523614574095 
-0.01322613952972310 
0 
-0.004168531535417415 
0.003831883058268450 
0.006056430205252168 
-0.01621764243878256 
0.01576730677436596 
-0.01115657037146624 
0.05615597582770043 
-0.002539820204828363 
-0.01185804043032895 
-0.0002638254854398129 
-0.02677714313174969 
0.02753220110370920 
-0.002381791901853012 
0.1773896940908601 
0.01730802846222844 
-0.008753546440749624 
-0.1436701602427754 
-0.01423124598623454 
0.02992480295282086 
0.002076486559414011 
0.01069229163660999 
-0.001159046443010976 
-0.02447073590686564 
0.007112221697040648 
-0.01312481496593236 
0 
0.09681132546077918 
0.02614066416574344 
-0.004672805407177856 
-0.01992450297622317 
-0.008230280937959024 
0.008211742873698831 
-0.008121238333110000 
0 
-0.01043729972495744 
0.02813255315969522 
0 
-0.03660782305710852 
0.04577032085380824 
0.001865327797726708 
-0.01984432040890300 
-0.002601871552300928 
-0.04115891589093628 
-0.007432186783957293 
0.03050613287164544 
0.01823698636333419 
0.003718708345435564 
-0.008239533782710827 
0.01345981532238569 
0.01558930518789722 
0.007383013016475947 
0.01601531765387032 
0.02721114154464132 
0.01712690019918703 
0.009000557459916484 
-0.02860633449055797 
-0.004168531535417415 
-0.009048946604061608 
0.01715259915635399 
0.009271666230149710 
0.006476268525897810 
0.002709286836197326 
0 
0.01589052193485069 
0.01304790190643079 
0.1191267475191889 
0.0009674396697086224 
0.02266791295494431 
-0.01195374719548159 
-0.01195374719548159 
-0.01828362422181213 
0.01186562817754362 
0.005305747759691894 
0.01449122596730498 
-0.01103944941515335 
0 
-0.02620393684906011 
0 
0.02258084073516103 
-0.005117094706330743 
0.02141330073468437 
-0.03442215625210682 
0.05866765832656443 
0.04356152030973355 
0.02276268477284661 
0.01338999130036238 
0.01351186891247993 
-0.006035961901417217 
-0.01267136692124707 
0.01892458567619037 
0.005108055712637042 
-0.0003643415532401184 
-0.01872770905784576 
0.006739628016265245 
-0.03127676779990428 
0.004632080085444952 
-0.02306704439671173 
0.03560692105777315 
0.006056430205252168 
0.01210226790302985 
-0.01109652530383574 
0.08580546351057301 
0 
-0.03324582995916323 
0.03154278223568909 
-0.01425369714632706 
0.002468477320842108 
-0.008207027197017902 
-0.007980945678507042 
0.009910633090872348 
-0.01592529253678611 
-0.006138997908773361 
-0.01492387905185657 
-0.004002426705184225 
0.001879436130554800 
-0.003566745897251674 
-0.07094035646590144 
0 
0.01884630259224101 
-0.01678172381906485 
-0.03181780389801754 
-0.009352187383854405 
-0.01249568781196953 
0.03804736519729506 
0.02292904459229718 
-0.01369505327884381 
0.01243998249697658 
0.006887120889903583 
-0.01220315491809152 
-0.01408784013643740 
-0.008388292320453976 
0.01517164286253063 
-0.01216332792664809 
0 
0.004927040142446990 
0.02392604911461594 
0 
-0.01048004797024119 
0.01688149366289504 
-0.001904824167668420 
0.05502180654218340 
-0.1189584425172406 
-0.1355010693465427 
0.02874621039859877 
-0.02394950773271683 
0.08146110490381200 
0 
0 
-0.01883947209531426 
-0.002128609162223395 
0.001348862774404919 
-0.003909939137004737 
-0.01427026392965538 
0.01779085009992992 
-0.004535338529510594 
-0.02932727300809712 
0.07218405231331390 
0.03531660929180737 
-0.005747225889086676 
0.002870711308808082 
0.02065456653781929 
-0.002275751798940595 
-0.01176182056683883 
-0.02018023917998834 
0.08897710352633315 
0.03303019597246225 
0 
0.04846525072645826 
0.004683454278280990 
0.2902997465261947 
0.1504066108234397 
-0.03665257117324571 
-0.05280897609045601 
-0.1708610047164255 
-0.01811603892197081 
-0.0007424633175846769 
0.02170809003611166 
0.1324338882748361 
-0.007741996982469901 
0 
-0.01457512617846283 
0 
0.009371847346635978 
0.05599203493870986 
0.008289498109687017 
0.007383013016475947 
-0.03198292516175765 
0.004496797676328034 
0.002004221056078117 
-0.008234740812289870 
0.03458825810744932 
0.01391116412729569 
0 
-0.005500207407097826 
-0.07773736885100416 
-0.004278770281449384 
-0.04834333580930767 
0.02344480871538971 
0.006003613625811822 
0.01527722423254923 
-0.02467153390860771 
0.002966275804462584 
0.01161347202490837 
-0.008810137100693490 
-0.03571309536203193 
-0.005631933762823673 
